{"learner":{"attributes":{"scikit_learn":"{\"_estimator_type\": \"classifier\"}"},"feature_names":["Glucose","BloodPressure","SkinThickness","Insulin","BMI","DiabetesPedigreeFunction","Age"],"feature_types":["int","int","int","int","float","float","int"],"gradient_booster":{"model":{"gbtree_model_param":{"num_parallel_tree":"1","num_trees":"50"},"iteration_indptr":[0,1,2,3,4,5,6,7,8,9,10,11,12,13,14,15,16,17,18,19,20,21,22,23,24,25,26,27,28,29,30,31,32,33,34,35,36,37,38,39,40,41,42,43,44,45,46,47,48,49,50],"tree_info":[0,0,0,0,0,0,0,0,0,0,0,0,0,0,0,0,0,0,0,0,0,0,0,0,0,0,0,0,0,0,0,0,0,0,0,0,0,0,0,0,0,0,0,0,0,0,0,0,0,0],"trees":[{"base_weights":[-6.481113E-2,-6.8644774E-1,1.4913372E0,-9.675181E-1,2.1895045E-1,1.6184355E-1,1.929323E0,-1.1648954E0,-2.0588897E-1,-4.335005E-1,9.08975E-1,-9.166474E-2,1.18368044E-1,4.5567855E-1,2.5665572E0,-1.2004395E0,-2.238588E-2,-8.2166576E-1,4.95512E-1,-1.00456014E-1,3.5601163E-1,1.6619223E-1,-2.1653812E-2,-2.238588E-2,7.2176254E-1,2.739751E-1,7.6063626E-2,-3.3323944E-2,-1.2378728E-1,-9.49899E-2,-2.238588E-2,1.7451313E-1,-5.6659278E-2,7.6063626E-2,-2.238588E-2,1.1362843E-2,1.0073642E-1],"categories":[],"categories_nodes":[],"categories_segments":[],"categories_sizes":[],"default_left":[0,0,0,0,0,0,0,0,0,0,0,0,0,0,0,0,0,0,0,0,0,0,0,0,0,0,0,0,0,0,0,0,0,0,0,0,0],"id":0,"left_children":[1,3,5,7,9,11,13,15,17,19,21,-1,-1,23,25,27,-1,29,31,-1,33,-1,-1,-1,35,-1,-1,-1,-1,-1,-1,-1,-1,-1,-1,-1,-1],"loss_changes":[4.948774E1,9.496193E0,8.198509E0,3.9731483E0,4.65223E0,6.2793746E0,9.068436E0,4.6855927E-1,3.4230142E0,2.8547564E0,4.5290747E0,0E0,0E0,9.765186E-1,2.2909164E-1,2.6955605E-1,0E0,1.0123539E-1,6.1492944E0,0E0,8.8894546E-1,0E0,0E0,0E0,4.891907E-1,0E0,0E0,0E0,0E0,0E0,0E0,0E0,0E0,0E0,0E0,0E0,0E0],"parents":[2147483647,0,0,1,1,2,2,3,3,4,4,5,5,6,6,7,7,8,8,9,9,10,10,13,13,14,14,15,15,17,17,18,18,20,20,24,24],"right_children":[2,4,6,8,10,12,14,16,18,20,22,-1,-1,24,26,28,-1,30,32,-1,34,-1,-1,-1,36,-1,-1,-1,-1,-1,-1,-1,-1,-1,-1,-1,-1],"split_conditions":[1.28E2,6.4E-1,2.95E1,3.1E1,3.25E1,2.8E1,3.42E-1,4.23E1,3.41E1,1.07E2,9.17E-1,-9.166474E-2,1.18368044E-1,1.36E2,4.06E1,7.9E1,-2.238588E-2,1.17E2,3.51E1,-1.00456014E-1,2.81E1,1.6619223E-1,-2.1653812E-2,-2.238588E-2,3.29E1,2.739751E-1,7.6063626E-2,-3.3323944E-2,-1.2378728E-1,-9.49899E-2,-2.238588E-2,1.7451313E-1,-5.6659278E-2,7.6063626E-2,-2.238588E-2,1.1362843E-2,1.0073642E-1],"split_indices":[0,5,4,6,4,6,5,4,4,0,5,0,0,0,4,0,0,0,4,0,4,0,0,0,4,0,0,0,0,0,0,0,0,0,0,0,0],"split_type":[0,0,0,0,0,0,0,0,0,0,0,0,0,0,0,0,0,0,0,0,0,0,0,0,0,0,0,0,0,0,0,0,0,0,0,0,0],"sum_hessian":[4.909932E1,3.5483543E1,1.3615778E1,2.7025255E1,8.458286E0,3.713394E0,9.902384E0,2.1042566E1,5.9826903E0,4.5385923E0,3.9196935E0,1.856697E0,1.856697E0,3.5070944E0,6.3952894E0,2.0011066E1,1.0314983E0,3.0944948E0,2.8881953E0,2.475596E0,2.0629966E0,2.0629966E0,1.856697E0,1.0314983E0,2.475596E0,5.3637915E0,1.0314983E0,1.237798E0,1.877327E1,2.0629966E0,1.0314983E0,1.0314983E0,1.856697E0,1.0314983E0,1.0314983E0,1.237798E0,1.237798E0],"tree_param":{"num_deleted":"0","num_feature":"7","num_nodes":"37","size_leaf_vector":"1"}},{"base_weights":[-5.475311E-2,-8.160417E-1,8.154991E-1,-1.0403161E0,1.4141858E-1,3.5875058E-1,1.3156991E0,-1.264215E-1,-6.659384E-1,-6.0021337E-2,6.6778284E-1,6.045725E-1,-6.4150594E-2,3.943384E-2,1.6054218E0,-9.014279E-1,-1.08729884E-1,1.2683646E-1,-3.538605E-2,-3.8681585E-1,9.061765E-1,-2.1806128E-2,2.7767954E-2,7.664702E-1,1.7899244E-1,-9.780933E-2,-2.7652895E-2,5.8576383E-2,-5.8687266E-2,-7.989834E-2,2.9554725E-2,1.0819832E-1,-2.380904E-2,9.196129E-2,2.245052E-2],"categories":[],"categories_nodes":[],"categories_segments":[],"categories_sizes":[],"default_left":[0,0,0,0,0,0,0,0,0,0,0,0,0,0,0,0,0,0,0,0,0,0,0,0,0,0,0,0,0,0,0,0,0,0,0],"id":1,"left_children":[1,3,5,7,9,11,13,-1,15,-1,17,19,-1,21,23,25,27,-1,-1,29,31,-1,-1,33,-1,-1,-1,-1,-1,-1,-1,-1,-1,-1,-1],"loss_changes":[3.3583447E1,5.9454174E0,4.939027E0,1.0019875E0,2.744947E0,3.769916E0,3.9780254E0,0E0,1.2594743E0,0E0,2.894278E0,3.805863E0,0E0,2.4749102E-1,2.954483E-3,7.134724E-2,1.7419372E0,0E0,0E0,1.1913701E0,2.100254E0,0E0,0E0,7.1597934E-2,0E0,0E0,0E0,0E0,0E0,0E0,0E0,0E0,0E0,0E0,0E0],"parents":[2147483647,0,0,1,1,2,2,3,3,4,4,5,5,6,6,8,8,10,10,11,11,13,13,14,14,15,15,16,16,19,19,20,20,23,23],"right_children":[2,4,6,8,10,12,14,-1,16,-1,18,20,-1,22,24,26,28,-1,-1,30,32,-1,-1,34,-1,-1,-1,-1,-1,-1,-1,-1,-1,-1,-1],"split_conditions":[1.14E2,6.74E-1,5.26E-1,3.1E1,3.19E1,4.52E-1,2.89E1,-1.264215E-1,8.8E1,-6.0021337E-2,3.68E1,1.99E-1,-6.4150594E-2,1.55E2,1.5E2,4.98E-1,2.89E-1,1.2683646E-1,-3.538605E-2,3.3E1,1.85E2,-2.1806128E-2,2.7767954E-2,3.62E1,1.7899244E-1,-9.780933E-2,-2.7652895E-2,5.8576383E-2,-5.8687266E-2,-7.989834E-2,2.9554725E-2,1.0819832E-1,-2.380904E-2,9.196129E-2,2.245052E-2],"split_indices":[3,5,5,4,4,5,4,0,3,0,4,5,0,3,3,5,5,0,0,2,3,0,0,4,0,0,0,0,0,0,0,0,0,0,0],"split_type":[0,0,0,0,0,0,0,0,0,0,0,0,0,0,0,0,0,0,0,0,0,0,0,0,0,0,0,0,0,0,0,0,0,0,0],"sum_hessian":[4.8686512E1,2.6002264E1,2.2684248E1,2.0997337E1,5.004928E0,1.2754721E1,9.929527E0,1.1651965E1,9.345371E0,2.01938E0,2.9855483E0,1.0556059E1,2.1986623E0,2.0472481E0,7.882279E0,6.134872E0,3.2104993E0,1.7281471E0,1.257401E0,2.3964086E0,8.15965E0,1.0245928E0,1.0226554E0,2.3501523E0,5.532127E0,4.9610286E0,1.1738433E0,1.2173047E0,1.9931945E0,1.3874444E0,1.0089641E0,7.120134E0,1.0395161E0,1.2890842E0,1.0610679E0],"tree_param":{"num_deleted":"0","num_feature":"7","num_nodes":"35","size_leaf_vector":"1"}},{"base_weights":[-5.101696E-2,-7.720298E-1,7.268298E-1,-9.9322593E-1,1.3130705E-1,-2.934619E-1,1.4546766E0,-1.0591772E0,-2.692774E-2,-4.7933083E-2,4.6477276E-1,4.6140384E-2,-4.4329968E-1,1.7098948E-1,1.2729256E-1,-2.4760718E-2,-1.0970901E0,-2.294123E-2,1.06546834E-1,-2.1605214E-1,-7.533125E-1,6.2220436E-2,-3.8697794E-2,-1.1803051E-1,-5.480347E-2,-4.6483304E-2,5.0392766E-2,-2.1329792E-2,-8.800327E-2],"categories":[],"categories_nodes":[],"categories_segments":[],"categories_sizes":[],"default_left":[0,0,0,0,0,0,0,0,0,0,0,0,0,0,0,0,0,0,0,0,0,0,0,0,0,0,0,0,0],"id":2,"left_children":[1,3,5,7,9,11,13,15,-1,-1,17,-1,19,-1,21,-1,23,-1,-1,25,27,-1,-1,-1,-1,-1,-1,-1,-1],"loss_changes":[2.8195135E1,5.3366795E0,1.8411037E1,7.196865E-1,1.446242E0,1.4391215E0,4.6275196E0,3.1139374E-1,0E0,0E0,2.0766444E0,0E0,5.147848E-1,0E0,1.1027999E0,0E0,1.6696548E-1,0E0,0E0,1.4793925E0,6.3141584E-2,0E0,0E0,0E0,0E0,0E0,0E0,0E0,0E0],"parents":[2147483647,0,0,1,1,2,2,3,3,4,4,5,5,6,6,7,7,10,10,12,12,14,14,16,16,19,19,20,20],"right_children":[2,4,6,8,10,12,14,16,-1,-1,18,-1,20,-1,22,-1,24,-1,-1,26,28,-1,-1,-1,-1,-1,-1,-1,-1],"split_conditions":[1.14E2,6.74E-1,2.9E1,8.4E1,2.5E1,5.4E1,1.88E2,5.2E1,-2.692774E-2,-4.7933083E-2,7.3E1,4.6140384E-2,2.6E1,1.7098948E-1,3.7E1,-2.4760718E-2,5.1E-1,-2.294123E-2,1.06546834E-1,8E1,7E1,6.2220436E-2,-3.8697794E-2,-1.1803051E-1,-5.480347E-2,-4.6483304E-2,5.0392766E-2,-2.1329792E-2,-8.800327E-2],"split_indices":[3,5,6,1,6,1,3,1,0,0,3,0,6,0,6,0,5,0,0,1,1,0,0,0,0,0,0,0,0],"split_type":[0,0,0,0,0,0,0,0,0,0,0,0,0,0,0,0,0,0,0,0,0,0,0,0,0,0,0,0,0],"sum_hessian":[4.827274E1,2.5055458E1,2.3217283E1,2.0047104E1,5.0083547E0,9.915124E0,1.3302159E1,1.7948915E1,2.0981882E0,1.6144938E0,3.3938608E0,1.2977669E0,8.617357E0,1.0915292E1,2.3868673E0,1.1371821E0,1.6811733E1,1.8611448E0,1.532716E0,5.9515953E0,2.665762E0,1.109375E0,1.2774924E0,1.3600704E1,3.2110286E0,4.6865807E0,1.2650145E0,1.0166322E0,1.6491299E0],"tree_param":{"num_deleted":"0","num_feature":"7","num_nodes":"29","size_leaf_vector":"1"}},{"base_weights":[-4.971557E-2,-7.301685E-1,6.463665E-1,-9.4884425E-1,1.23462446E-1,-2.7308235E-1,1.2717594E0,-1.1859252E-1,-5.7044846E-1,-5.586609E-2,5.8680534E-1,-8.006417E-1,4.8368007E-2,1.4829386E0,1.2109857E-1,-8.128271E-1,-3.4532998E-2,1.1215214E-1,-3.4542028E-2,-1.9843249E-2,-9.295804E-2,6.862896E-1,-7.720789E-1,8.808776E-1,1.71898E-1,5.832647E-2,-3.6839005E-2,-1.9435432E-2,-8.976611E-2,-6.951752E-2,4.4871982E-2,-2.0886658E-2,9.787389E-2,-2.1857096E-2,-8.965495E-2,-1.3732413E-2,1.6152339E-1],"categories":[],"categories_nodes":[],"categories_segments":[],"categories_sizes":[],"default_left":[0,0,0,0,0,0,0,0,0,0,0,0,0,0,0,0,0,0,0,0,0,0,0,0,0,0,0,0,0,0,0,0,0,0,0,0,0],"id":3,"left_children":[1,3,5,7,9,11,13,-1,15,-1,17,19,21,23,25,27,29,-1,-1,-1,-1,31,33,35,-1,-1,-1,-1,-1,-1,-1,-1,-1,-1,-1,-1,-1],"loss_changes":[2.3567495E1,4.8075085E0,1.4512235E1,1.1282616E0,2.2269983E0,1.8695064E0,3.4260464E0,0E0,1.228812E0,0E0,2.4142194E0,1.3734698E-1,4.534408E0,2.5484467E-1,9.817438E-1,1.7278767E-1,1.6074058E0,0E0,0E0,0E0,0E0,1.4698722E0,6.704354E-2,4.376884E0,0E0,0E0,0E0,0E0,0E0,0E0,0E0,0E0,0E0,0E0,0E0,0E0,0E0],"parents":[2147483647,0,0,1,1,2,2,3,3,4,4,5,5,6,6,8,8,10,10,11,11,12,12,13,13,14,14,15,15,16,16,21,21,22,22,23,23],"right_children":[2,4,6,8,10,12,14,-1,16,-1,18,20,22,24,26,28,30,-1,-1,-1,-1,32,34,36,-1,-1,-1,-1,-1,-1,-1,-1,-1,-1,-1,-1,-1],"split_conditions":[1.14E2,6.74E-1,2.9E1,3.1E1,3.19E1,3.09E1,1.88E2,-1.1859252E-1,8.8E1,-5.586609E-2,3.68E1,1.22E2,2.6E1,1.42E2,3.7E1,2.48E-1,2.6E1,1.1215214E-1,-3.4542028E-2,-1.9843249E-2,-9.295804E-2,1.35E2,3.46E1,4E1,1.71898E-1,5.832647E-2,-3.6839005E-2,-1.9435432E-2,-8.976611E-2,-6.951752E-2,4.4871982E-2,-2.0886658E-2,9.787389E-2,-2.1857096E-2,-8.965495E-2,-1.3732413E-2,1.6152339E-1],"split_indices":[3,5,6,4,4,4,3,0,3,0,4,3,6,3,6,5,6,0,0,0,0,3,4,6,0,0,0,0,0,0,0,0,0,0,0,0,0],"split_type":[0,0,0,0,0,0,0,0,0,0,0,0,0,0,0,0,0,0,0,0,0,0,0,0,0,0,0,0,0,0,0,0,0,0,0,0,0],"sum_hessian":[4.7760662E1,2.4126705E1,2.3633959E1,1.9117748E1,5.008958E0,9.795709E0,1.3838249E1,1.0441574E1,8.676174E0,1.9429181E0,3.0660398E0,3.1444194E0,6.6512895E0,1.1448374E1,2.389876E0,5.618421E0,3.0577528E0,1.8193941E0,1.2466456E0,1.002271E0,2.1421485E0,3.8338645E0,2.817425E0,4.556972E0,6.8914013E0,1.1307051E0,1.2591707E0,1.0746676E0,4.5437536E0,1.1065222E0,1.9512305E0,1.0144728E0,2.8193915E0,1.0232304E0,1.7941947E0,2.250124E0,2.3068483E0],"tree_param":{"num_deleted":"0","num_feature":"7","num_nodes":"37","size_leaf_vector":"1"}},{"base_weights":[-4.819128E-2,-6.93721E-1,5.8389807E-1,-1.0940849E-1,-2.4789862E-1,-2.63139E-1,1.1441995E0,-5.8060724E-1,3.0812237E-1,-8.105021E-1,3.632227E-1,1.3284624E0,1.1504665E-1,-3.039533E-1,-7.852316E-1,-7.420394E-2,8.1024075E-1,-2.539593E-2,-8.8832587E-1,1.035267E0,-5.894012E-2,-1.4523063E-4,1.4662732E0,5.4728735E-2,-3.507841E-2,-7.312522E-2,1.8184315E-3,-2.2327034E-2,-8.935873E-2,1.1102817E-1,6.645827E-3,-2.2833278E-2,-1.0014756E-1,1.6775994E-1,-2.8182661E-2,6.9555305E-2,1.629101E-1],"categories":[],"categories_nodes":[],"categories_segments":[],"categories_sizes":[],"default_left":[0,0,0,0,0,0,0,0,0,0,0,0,0,0,0,0,0,0,0,0,0,0,0,0,0,0,0,0,0,0,0,0,0,0,0,0,0],"id":4,"left_children":[1,3,5,-1,7,9,11,13,15,17,19,21,23,25,27,-1,29,-1,31,33,-1,-1,35,-1,-1,-1,-1,-1,-1,-1,-1,-1,-1,-1,-1,-1,-1],"loss_changes":[2.0000252E1,4.05116E0,1.2074572E1,0E0,2.5376701E0,3.9592752E0,2.7140312E0,2.3254561E-1,3.4627438E0,3.4879923E-2,4.2437234E0,2.3347473E0,8.7466544E-1,7.2502947E-1,5.3390026E-2,0E0,8.5219836E-1,0E0,1.3544846E-1,3.5951307E0,0E0,0E0,3.142414E-1,0E0,0E0,0E0,0E0,0E0,0E0,0E0,0E0,0E0,0E0,0E0,0E0,0E0,0E0],"parents":[2147483647,0,0,1,1,2,2,4,4,5,5,6,6,7,7,8,8,9,9,10,10,11,11,12,12,13,13,14,14,16,16,18,18,19,19,22,22],"right_children":[2,4,6,-1,8,10,12,14,16,18,20,22,24,26,28,-1,30,-1,32,34,-1,-1,36,-1,-1,-1,-1,-1,-1,-1,-1,-1,-1,-1,-1,-1,-1],"split_conditions":[1.14E2,3.1E1,2.9E1,-1.0940849E-1,8.8E1,3.2E1,1.88E2,2.8E1,2.6E1,2.66E1,2.6E1,1.8E1,3.7E1,3.36E1,3.37E1,-7.420394E-2,3.51E1,-2.539593E-2,1.8E1,3.7E1,-5.894012E-2,-1.4523063E-4,1.27E2,5.4728735E-2,-3.507841E-2,-7.312522E-2,1.8184315E-3,-2.2327034E-2,-8.935873E-2,1.1102817E-1,6.645827E-3,-2.2833278E-2,-1.0014756E-1,1.6775994E-1,-2.8182661E-2,6.9555305E-2,1.629101E-1],"split_indices":[3,4,6,0,3,2,3,6,6,4,6,2,6,4,4,0,4,0,2,2,0,0,3,0,0,0,0,0,0,0,0,0,0,0,0,0,0],"split_type":[0,0,0,0,0,0,0,0,0,0,0,0,0,0,0,0,0,0,0,0,0,0,0,0,0,0,0,0,0,0,0,0,0,0,0,0,0],"sum_hessian":[4.702361E1,2.3216225E1,2.3807384E1,1.146562E1,1.1750604E1,9.6895485E0,1.4117836E1,7.3239336E0,4.4266706E0,5.0139704E0,4.6755776E0,1.172731E1,2.390526E0,4.1706285E0,3.1533046E0,1.2773414E0,3.1493292E0,1.1381261E0,3.8758445E0,2.6906564E0,1.9849212E0,1.1940308E0,1.0533279E1,1.1492671E0,1.241259E0,1.2468057E0,2.923823E0,1.004457E0,2.1488478E0,1.8929608E0,1.2563684E0,1.0089121E0,2.8669324E0,1.6246291E0,1.0660274E0,2.7566786E0,7.776601E0],"tree_param":{"num_deleted":"0","num_feature":"7","num_nodes":"37","size_leaf_vector":"1"}},{"base_weights":[-4.7200333E-2,-6.596166E-1,5.3157425E-1,-8.8195616E-1,1.5383716E-1,-2.4837232E-1,1.0334342E0,-1.1165171E-1,-5.331291E-1,-4.835553E-2,5.5369836E-1,-7.37956E-1,3.9230704E-2,1.1960864E0,1.0916106E-1,2.3726456E-2,-6.6563326E-1,1.0175488E-1,-3.04371E-2,-2.3569545E-2,-8.529857E-2,5.849826E-1,-7.085596E-1,7.7069426E-1,1.45442E0,5.139751E-2,-3.3409398E-2,-8.412943E-2,2.4592344E-2,1.0830807E-1,7.744828E-3,-8.307237E-2,-2.2366246E-2,1.4823736E-1,-2.0399632E-2,4.3432634E-2,1.5925471E-1],"categories":[],"categories_nodes":[],"categories_segments":[],"categories_sizes":[],"default_left":[0,0,0,0,0,0,0,0,0,0,0,0,0,0,0,0,0,0,0,0,0,0,0,0,0,0,0,0,0,0,0,0,0,0,0,0,0],"id":5,"left_children":[1,3,5,7,9,11,13,-1,15,-1,17,19,21,23,25,-1,27,-1,-1,-1,-1,29,31,33,35,-1,-1,-1,-1,-1,-1,-1,-1,-1,-1,-1,-1],"loss_changes":[1.707849E1,4.363653E0,9.970654E0,9.190378E-1,1.7636772E0,1.5106113E0,2.168703E0,0E0,1.1128931E0,0E0,1.9308122E0,2.6847363E-2,3.5072381E0,2.9727554E-1,7.7984834E-1,0E0,1.5271075E0,0E0,0E0,0E0,0E0,1.1621056E0,3.0385852E-2,5.1602736E0,2.808218E-1,0E0,0E0,0E0,0E0,0E0,0E0,0E0,0E0,0E0,0E0,0E0,0E0],"parents":[2147483647,0,0,1,1,2,2,3,3,4,4,5,5,6,6,8,8,10,10,11,11,12,12,13,13,14,14,16,16,21,21,22,22,23,23,24,24],"right_children":[2,4,6,8,10,12,14,-1,16,-1,18,20,22,24,26,-1,28,-1,-1,-1,-1,30,32,34,36,-1,-1,-1,-1,-1,-1,-1,-1,-1,-1,-1,-1],"split_conditions":[1.14E2,6.74E-1,2.9E1,3.1E1,3.19E1,3.09E1,1.88E2,-1.1165171E-1,3.22E1,-4.835553E-2,3.68E1,2.21E-1,2.6E1,4E1,3.7E1,2.3726456E-2,5.07E-1,1.0175488E-1,-3.04371E-2,-2.3569545E-2,-8.529857E-2,3.47E1,1.59E2,3.4E1,2.34E-1,5.139751E-2,-3.3409398E-2,-8.412943E-2,2.4592344E-2,1.0830807E-1,7.744828E-3,-8.307237E-2,-2.2366246E-2,1.4823736E-1,-2.0399632E-2,4.3432634E-2,1.5925471E-1],"split_indices":[3,5,6,4,4,4,3,0,4,0,4,5,6,6,6,0,5,0,0,0,0,4,3,6,5,0,0,0,0,0,0,0,0,0,0,0,0],"split_type":[0,0,0,0,0,0,0,0,0,0,0,0,0,0,0,0,0,0,0,0,0,0,0,0,0,0,0,0,0,0,0,0,0,0,0,0,0],"sum_hessian":[4.6193703E1,2.2376682E1,2.3817022E1,1.7507252E1,4.8694315E0,9.52273E0,1.42942915E1,9.152251E0,8.355E0,1.7964773E0,3.0729542E0,2.9444828E0,6.5782475E0,1.1905156E1,2.3891351E0,1.1101055E0,7.2448945E0,1.8740385E0,1.1989157E0,1.116862E0,1.8276209E0,3.928714E0,2.6495333E0,6.0031805E0,5.901976E0,1.1653249E0,1.2238102E0,6.1389675E0,1.1059269E0,1.4104663E0,2.5182478E0,1.5466717E0,1.1028616E0,3.1686761E0,2.8345041E0,1.1981106E0,4.703865E0],"tree_param":{"num_deleted":"0","num_feature":"7","num_nodes":"37","size_leaf_vector":"1"}},{"base_weights":[-4.2051077E-2,-6.251674E-1,4.8980275E-1,-8.4419984E-1,1.4234616E-1,-1.8852903E-1,9.9099976E-1,-9.1916376E-1,-1.28556965E-2,-3.839927E-2,4.048636E-1,-4.480091E-1,4.5960325E-1,1.1327399E0,4.413323E-3,-1.03710406E-1,-5.0629634E-1,-3.2990437E-2,7.8396916E-1,2.1048104E-2,-5.6529593E-1,-3.6832597E-2,9.941912E-2,4.2462063E-1,1.3014106E0,-8.560568E-2,1.0447936E-3,9.876848E-2,1.9203564E-2,-7.166095E-3,-7.700495E-2,-1.4609456E-2,8.012692E-2,7.169144E-2,1.537427E-1],"categories":[],"categories_nodes":[],"categories_segments":[],"categories_sizes":[],"default_left":[0,0,0,0,0,0,0,0,0,0,0,0,0,0,0,0,0,0,0,0,0,0,0,0,0,0,0,0,0,0,0,0,0,0,0],"id":6,"left_children":[1,3,5,7,9,11,13,15,-1,-1,17,19,21,23,-1,-1,25,-1,27,-1,29,-1,-1,31,33,-1,-1,-1,-1,-1,-1,-1,-1,-1,-1],"loss_changes":[1.4634841E1,3.8989553E0,8.592314E0,8.277321E-1,9.632617E-1,2.1139712E0,1.879673E0,2.4414825E-1,0E0,0E0,1.4807945E0,7.8382397E-1,2.0202863E0,9.362545E-1,0E0,0E0,9.96459E-1,0E0,1.9504726E-1,0E0,7.107706E-1,0E0,0E0,9.515979E-1,2.1979713E-1,0E0,0E0,0E0,0E0,0E0,0E0,0E0,0E0,0E0,0E0],"parents":[2147483647,0,0,1,1,2,2,3,3,4,4,5,5,6,6,7,7,10,10,11,11,12,12,13,13,16,16,18,18,20,20,23,23,24,24],"right_children":[2,4,6,8,10,12,14,16,-1,-1,18,20,22,24,-1,-1,26,-1,28,-1,30,-1,-1,32,34,-1,-1,-1,-1,-1,-1,-1,-1,-1,-1],"split_conditions":[1.14E2,6.74E-1,3.1E1,8.4E1,2.5E1,6.13E-1,1.88E2,8.8E1,-1.28556965E-2,-3.839927E-2,6.8E1,6E1,1.59E2,7E1,4.413323E-3,-1.03710406E-1,2.6E1,-3.2990437E-2,9.17E-1,2.1048104E-2,2.21E-1,-3.6832597E-2,9.941912E-2,1.32E2,4E1,-8.560568E-2,1.0447936E-3,9.876848E-2,1.9203564E-2,-7.166095E-3,-7.700495E-2,-1.4609456E-2,8.012692E-2,7.169144E-2,1.537427E-1],"split_indices":[3,5,6,1,6,5,3,3,0,0,3,1,3,1,0,0,6,0,5,0,5,0,0,3,6,0,0,0,0,0,0,0,0,0,0],"split_type":[0,0,0,0,0,0,0,0,0,0,0,0,0,0,0,0,0,0,0,0,0,0,0,0,0,0,0,0,0,0,0,0,0,0,0],"sum_hessian":[4.5201622E1,2.147801E1,2.372361E1,1.6631742E1,4.846267E0,1.0345547E1,1.3378063E1,1.4797326E1,1.8344166E0,1.4587631E0,3.3875043E0,7.608321E0,2.737226E0,1.1465452E1,1.9126115E0,1.0333494E1,4.463832E0,1.1971045E0,2.1904E0,1.0301437E0,6.5781775E0,1.195985E0,1.541241E0,2.882306E0,8.583146E0,2.2704399E0,2.193392E0,1.1321822E0,1.0582175E0,2.3243785E0,4.2537985E0,1.3892978E0,1.4930084E0,3.6302843E0,4.952862E0],"tree_param":{"num_deleted":"0","num_feature":"7","num_nodes":"35","size_leaf_vector":"1"}},{"base_weights":[-3.6620807E-2,-5.6744957E-1,8.3261603E-1,-7.8478444E-1,2.0599954E-2,-3.9553355E-2,9.6342427E-1,-9.3253815E-1,-2.249381E-1,4.7308186E-1,-6.1036485E-1,-5.8917957E-3,1.0555577E0,-1.8921483E-2,-9.736779E-1,-6.118051E-1,4.9741287E-2,-2.7502772E-1,9.946166E-1,-9.465264E-2,1.8683773E-2,2.7944767E-1,1.2424431E0,-2.0355595E-2,-1.0202092E-1,1.4159198E-2,-9.1778286E-2,2.31614E-2,-6.557074E-2,1.2767825E-1,1.7355097E-2,-6.878229E-2,8.835179E-2,1.4004837E-1,4.986034E-2],"categories":[],"categories_nodes":[],"categories_segments":[],"categories_sizes":[],"default_left":[0,0,0,0,0,0,0,0,0,0,0,0,0,0,0,0,0,0,0,0,0,0,0,0,0,0,0,0,0,0,0,0,0,0,0],"id":7,"left_children":[1,3,5,7,9,-1,11,13,15,17,19,-1,21,-1,23,25,-1,27,29,-1,-1,31,33,-1,-1,-1,-1,-1,-1,-1,-1,-1,-1,-1,-1],"loss_changes":[2.13626E1,3.6845446E0,3.2038403E0,1.5259533E0,2.7783313E0,0E0,1.5853224E0,3.1372643E-1,1.8970326E0,2.474718E0,1.2698177E0,0E0,1.8120003E0,0E0,3.366108E-1,1.0889294E0,0E0,7.49919E-1,5.987408E-1,0E0,0E0,3.04959E0,6.779995E-1,0E0,0E0,0E0,0E0,0E0,0E0,0E0,0E0,0E0,0E0,0E0,0E0],"parents":[2147483647,0,0,1,1,2,2,3,3,4,4,6,6,7,7,8,8,9,9,10,10,12,12,14,14,15,15,17,17,18,18,21,21,22,22],"right_children":[2,4,6,8,10,-1,12,14,16,18,20,-1,22,-1,24,26,-1,28,30,-1,-1,32,34,-1,-1,-1,-1,-1,-1,-1,-1,-1,-1,-1,-1],"split_conditions":[1.25E2,6.4E-1,1.92E-1,3.1E1,9.17E-1,-3.9553355E-2,1.6E1,8E1,1.09E2,3E1,1.268E0,-5.8917957E-3,2.8E1,-1.8921483E-2,1.43E-1,2.6E1,4.9741287E-2,2.1E1,8.01E-1,-9.465264E-2,1.8683773E-2,3E1,4.8E1,-2.0355595E-2,-1.0202092E-1,1.4159198E-2,-9.1778286E-2,2.31614E-2,-6.557074E-2,1.2767825E-1,1.7355097E-2,-6.878229E-2,8.835179E-2,1.4004837E-1,4.986034E-2],"split_indices":[0,5,5,6,5,0,2,0,0,2,5,0,6,0,5,2,0,2,5,0,0,2,6,0,0,0,0,0,0,0,0,0,0,0,0],"split_type":[0,0,0,0,0,0,0,0,0,0,0,0,0,0,0,0,0,0,0,0,0,0,0,0,0,0,0,0,0,0,0,0,0,0,0],"sum_hessian":[4.4273975E1,2.7703243E1,1.6570732E1,1.9983185E1,7.72006E0,1.4002368E0,1.5170496E1,1.5283804E1,4.69938E0,4.6416397E0,3.0784204E0,1.2839458E0,1.388655E1,1.0951769E0,1.4188627E1,3.1600168E0,1.539363E0,2.1008115E0,2.5408282E0,2.0335927E0,1.0448276E0,3.179169E0,1.0707381E1,1.114675E0,1.3073953E1,1.0678757E0,2.0921412E0,1.0692878E0,1.0315238E0,1.4779038E0,1.0629244E0,1.1688671E0,2.0103018E0,8.102995E0,2.604386E0],"tree_param":{"num_deleted":"0","num_feature":"7","num_nodes":"35","size_leaf_vector":"1"}},{"base_weights":[-3.456519E-2,-4.9468374E-1,8.303407E-1,-7.874917E-1,-1.451413E-1,2.1082906E-1,1.1082095E0,-8.613138E-1,4.6968344E-3,4.6205837E-1,-5.1588553E-1,-2.990182E-1,9.587356E-2,1.2087577E-1,3.343912E-2,-1.5329765E-2,-9.045037E-1,-2.339744E-2,8.1621134E-1,-7.798735E-2,-9.987872E-2,-7.545813E-2,1.8888E-2,-3.2099243E-2,-9.5017016E-2,3.0194992E-2,1.15134634E-1,-6.530975E-2,1.7835325E-2],"categories":[],"categories_nodes":[],"categories_segments":[],"categories_sizes":[],"default_left":[0,0,0,0,0,0,0,0,0,0,0,0,0,0,0,0,0,0,0,0,0,0,0,0,0,0,0,0,0],"id":8,"left_children":[1,3,5,7,9,11,13,15,-1,17,19,21,-1,-1,-1,-1,23,-1,25,27,-1,-1,-1,-1,-1,-1,-1,-1,-1],"loss_changes":[1.8047411E1,2.9106145E0,2.4798117E0,1.0172539E0,3.547172E0,2.6187444E0,4.2420197E-1,3.0839825E-1,0E0,1.6945623E0,1.951828E0,1.1202705E0,0E0,0E0,0E0,0E0,5.6734085E-2,0E0,3.8749766E-1,1.0184988E0,0E0,0E0,0E0,0E0,0E0,0E0,0E0,0E0,0E0],"parents":[2147483647,0,0,1,1,2,2,3,3,4,4,5,5,6,6,7,7,9,9,10,10,11,11,16,16,18,18,19,19],"right_children":[2,4,6,8,10,12,14,16,-1,18,20,22,-1,-1,-1,-1,24,-1,26,28,-1,-1,-1,-1,-1,-1,-1,-1,-1],"split_conditions":[1.28E2,3.33E1,3.16E1,1.25E2,3.52E1,1.6E2,4.06E1,8E1,4.6968344E-3,1.03E2,3.8E1,2.8E1,9.587356E-2,1.2087577E-1,3.343912E-2,-1.5329765E-2,1.4E1,-2.339744E-2,1.56E2,8.8E1,-9.987872E-2,-7.545813E-2,1.8888E-2,-3.2099243E-2,-9.5017016E-2,3.0194992E-2,1.15134634E-1,-6.530975E-2,1.7835325E-2],"split_indices":[0,4,4,0,4,0,4,0,0,0,2,2,0,0,0,0,2,0,3,0,0,0,0,0,0,0,0,0,0],"split_type":[0,0,0,0,0,0,0,0,0,0,0,0,0,0,0,0,0,0,0,0,0,0,0,0,0,0,0,0,0],"sum_hessian":[4.3317738E1,2.8554935E1,1.4762801E1,1.4856709E1,1.3698227E1,5.1158004E0,9.647E0,1.3619639E1,1.237069E0,5.0997043E0,8.598523E0,3.3989391E0,1.7168612E0,8.040206E0,1.6067947E0,1.0446112E0,1.2575028E1,1.8342031E0,3.265501E0,5.1185174E0,3.4800055E0,1.4750507E0,1.9238884E0,1.4954683E0,1.107956E1,2.0384693E0,1.2270316E0,1.1008793E0,4.017638E0],"tree_param":{"num_deleted":"0","num_feature":"7","num_nodes":"29","size_leaf_vector":"1"}},{"base_weights":[-3.20577E-2,-4.652269E-1,7.61297E-1,-7.488246E-1,-1.350731E-1,4.5638776E-1,1.3071413E-1,-8.2224905E-1,4.432487E-3,4.3539765E-1,-4.9167266E-1,-6.503471E-2,6.331017E-1,-1.4619132E-2,-8.649718E-1,-3.574442E-2,7.643993E-1,-2.3113813E-1,-7.9329446E-2,8.827564E-1,-7.746145E-2,-9.897944E-2,-4.9014475E-2,-8.847577E-3,1.2020723E-1,-8.036686E-2,1.8792707E-2,2.466256E-2,1.13447E-1,-8.039276E-2,5.291137E-2],"categories":[],"categories_nodes":[],"categories_segments":[],"categories_sizes":[],"default_left":[0,0,0,0,0,0,0,0,0,0,0,0,0,0,0,0,0,0,0,0,0,0,0,0,0,0,0,0,0,0,0],"id":9,"left_children":[1,3,5,7,9,11,-1,13,-1,15,17,-1,19,-1,21,-1,23,25,-1,27,29,-1,-1,-1,-1,-1,-1,-1,-1,-1,-1],"loss_changes":[1.5283929E1,2.5880747E0,2.0201406E0,9.2338943E-1,3.1620746E0,2.6850808E0,0E0,2.7764416E-1,0E0,1.8655761E0,5.5429435E-1,0E0,1.936378E0,0E0,1.21017456E-1,0E0,1.835721E0,1.698009E0,0E0,9.8085594E-1,2.0369127E0,0E0,0E0,0E0,0E0,0E0,0E0,0E0,0E0,0E0,0E0],"parents":[2147483647,0,0,1,1,2,2,3,3,4,4,5,5,7,7,9,9,10,10,12,12,14,14,16,16,17,17,19,19,20,20],"right_children":[2,4,6,8,10,12,-1,14,-1,16,18,-1,20,-1,22,-1,24,26,-1,28,30,-1,-1,-1,-1,-1,-1,-1,-1,-1,-1],"split_conditions":[1.28E2,3.33E1,1.66E2,1.25E2,3.52E1,2.61E1,1.3071413E-1,8E1,4.432487E-3,2.6E1,1.08E2,-6.503471E-2,1.53E2,-1.4619132E-2,1.07E2,-3.574442E-2,3.42E1,9.1E1,-7.9329446E-2,3E1,1.55E2,-9.897944E-2,-4.9014475E-2,-8.847577E-3,1.2020723E-1,-8.036686E-2,1.8792707E-2,2.466256E-2,1.13447E-1,-8.039276E-2,5.291137E-2],"split_indices":[0,4,0,0,4,4,0,0,0,6,0,0,0,0,0,0,4,0,0,6,0,0,0,0,0,0,0,0,0,0,0],"split_type":[0,0,0,0,0,0,0,0,0,0,0,0,0,0,0,0,0,0,0,0,0,0,0,0,0,0,0,0,0,0,0],"sum_hessian":[4.244379E1,2.7721521E1,1.4722268E1,1.4230017E1,1.3491504E1,1.0623874E1,4.0983944E0,1.2990733E1,1.2392837E0,5.1045384E0,8.386966E0,1.0937355E0,9.530138E0,1.0349668E0,1.1955767E1,1.4716482E0,3.6328905E0,5.4476867E0,2.9392786E0,6.8729944E0,2.657144E0,7.738176E0,4.2175903E0,1.5026293E0,2.1302612E0,1.914422E0,3.5332649E0,2.50986E0,4.3631344E0,1.0610362E0,1.5961078E0],"tree_param":{"num_deleted":"0","num_feature":"7","num_nodes":"31","size_leaf_vector":"1"}},{"base_weights":[-3.141784E-2,-4.4008675E-1,7.023354E-1,-5.845726E-1,4.4933036E-2,4.191229E-1,1.2045165E0,-8.369892E-1,-3.977639E-1,-4.7639686E-1,4.677392E-1,-5.918291E-1,7.68818E-1,3.641087E-2,1.3632242E-1,-2.0812992E-2,-1.0072625E-1,2.6348937E-2,-4.7755158E-1,-7.0808776E-2,-7.537558E-3,8.153738E-2,-3.0826146E-2,1.4291452E-2,-9.531736E-2,1.04979515E-1,-8.338479E-2,-6.362707E-2,-4.2231455E-3,-7.731836E-2,6.1802775E-2],"categories":[],"categories_nodes":[],"categories_segments":[],"categories_sizes":[],"default_left":[0,0,0,0,0,0,0,0,0,0,0,0,0,0,0,0,0,0,0,0,0,0,0,0,0,0,0,0,0,0,0],"id":10,"left_children":[1,3,5,7,9,11,13,15,17,19,21,23,25,-1,-1,-1,-1,-1,27,-1,-1,-1,-1,-1,-1,-1,29,-1,-1,-1,-1],"loss_changes":[1.3055011E1,1.9825377E0,1.7125044E0,6.846318E-1,1.8398085E0,4.5213346E0,1.8230915E-1,6.7615986E-1,8.8066936E-1,2.9789233E-1,1.4801991E0,1.0710815E0,2.2380428E0,0E0,0E0,0E0,0E0,0E0,8.797908E-1,0E0,0E0,0E0,0E0,0E0,0E0,0E0,2.0035238E0,0E0,0E0,0E0,0E0],"parents":[2147483647,0,0,1,1,2,2,3,3,4,4,5,5,6,6,7,7,8,8,9,9,10,10,11,11,12,12,18,18,26,26],"right_children":[2,4,6,8,10,12,14,16,18,20,22,24,26,-1,-1,-1,-1,-1,28,-1,-1,-1,-1,-1,-1,-1,30,-1,-1,-1,-1],"split_conditions":[1.28E2,1.44E2,1.66E2,9.5E1,2.9E1,2.8E1,1.4E2,8.1E1,4.9E1,3.2E1,1.85E2,1.45E2,1.53E2,3.641087E-2,1.3632242E-1,-2.0812992E-2,-1.0072625E-1,2.6348937E-2,3.1E1,-7.0808776E-2,-7.537558E-3,8.153738E-2,-3.0826146E-2,1.4291452E-2,-9.531736E-2,1.04979515E-1,1.55E2,-6.362707E-2,-4.2231455E-3,-7.731836E-2,6.1802775E-2],"split_indices":[0,3,0,0,6,2,3,0,3,2,3,3,0,0,0,0,0,0,6,0,0,0,0,0,0,0,0,0,0,0,0],"split_type":[0,0,0,0,0,0,0,0,0,0,0,0,0,0,0,0,0,0,0,0,0,0,0,0,0,0,0,0,0,0,0],"sum_hessian":[4.1505943E1,2.6915432E1,1.459051E1,2.0579584E1,6.3358493E0,1.0502229E1,4.0882816E0,7.272498E0,1.3307085E1,2.7805796E0,3.5552697E0,2.5211856E0,7.981043E0,1.1726949E0,2.9155867E0,2.023087E0,5.2494106E0,1.1848735E0,1.2122211E1,1.27705E0,1.5035295E0,2.420286E0,1.1349838E0,1.030434E0,1.4907517E0,5.8277373E0,2.1533055E0,8.545045E0,3.5771668E0,1.0340517E0,1.1192539E0],"tree_param":{"num_deleted":"0","num_feature":"7","num_nodes":"31","size_leaf_vector":"1"}},{"base_weights":[-2.9809933E-2,-6.794084E-1,2.5567222E-1,-8.226558E-1,5.440394E-3,-4.8120442E-1,3.577276E-1,-4.3159512E-1,-1.00928165E-1,-6.619594E-2,1.918266E-3,-4.713514E-2,4.283473E-1,-8.15209E-2,1.1155609E-1,1.127419E-1,3.3247158E-1,-1.0836152E-2,2.7494634E-2,-2.5654236E-2,4.3810096E-2],"categories":[],"categories_nodes":[],"categories_segments":[],"categories_sizes":[],"default_left":[0,0,0,0,0,0,0,0,0,0,0,0,0,0,0,0,0,0,0,0,0],"id":11,"left_children":[1,3,5,7,-1,9,11,13,-1,-1,-1,-1,15,-1,17,-1,19,-1,-1,-1,-1],"loss_changes":[7.8841357E0,1.4078064E0,2.3988876E0,3.6071873E-1,0E0,3.7706167E-1,1.7582407E0,1.1894269E0,0E0,0E0,0E0,0E0,1.3020458E0,0E0,1.3981411E-1,0E0,1.5695105E0,0E0,0E0,0E0,0E0],"parents":[2147483647,0,0,1,1,2,2,3,3,5,5,6,6,7,7,12,12,14,14,16,16],"right_children":[2,4,6,8,-1,10,12,14,-1,-1,-1,-1,16,-1,18,-1,20,-1,-1,-1,-1],"split_conditions":[8.8E1,8.2E1,1.8E1,6.5E1,5.440394E-3,1.65E2,2.58E1,6.2E1,-1.00928165E-1,-6.619594E-2,1.918266E-3,-4.713514E-2,5.2E1,-8.15209E-2,2.5E1,1.127419E-1,6.4E1,-1.0836152E-2,2.7494634E-2,-2.5654236E-2,4.3810096E-2],"split_indices":[3,1,2,1,0,3,4,1,0,0,0,0,1,0,2,0,1,0,0,0,0],"split_type":[0,0,0,0,0,0,0,0,0,0,0,0,0,0,0,0,0,0,0,0,0],"sum_hessian":[4.0577145E1,1.1967016E1,2.861013E1,9.911183E0,2.0558324E0,3.028456E0,2.5581675E1,4.272047E0,5.639137E0,1.9875852E0,1.0408707E0,1.5625653E0,2.4019108E1,2.2101717E0,2.0618756E0,1.5992326E0,2.2419876E1,1.0224655E0,1.03941E0,3.1919765E0,1.92279E1],"tree_param":{"num_deleted":"0","num_feature":"7","num_nodes":"21","size_leaf_vector":"1"}},{"base_weights":[-3.13379E-2,-4.4873837E-1,5.761022E-1,-5.660593E-1,2.98434E-1,3.25494E-1,1.1172916E0,-7.623636E-1,-2.8072935E-1,8.683064E-2,-4.4836998E-2,-2.2419222E-1,5.2295357E-1,2.794365E-2,1.296208E-1,-1.0136902E-1,-3.0440155E-1,-5.6149334E-1,2.4994689E-1,4.8057485E-2,-6.163019E-2,7.05469E-1,-3.2046553E-2,6.7739956E-2,-6.711712E-2,5.011182E-2,-8.977174E-2,8.068349E-2,-5.1404793E-2,1.0616159E-1,4.0153235E-2,-4.7194105E-2,3.659009E-2],"categories":[],"categories_nodes":[],"categories_segments":[],"categories_sizes":[],"default_left":[0,0,0,0,0,0,0,0,0,0,0,0,0,0,0,0,0,0,0,0,0,0,0,0,0,0,0,0,0,0,0,0,0],"id":12,"left_children":[1,3,5,7,9,11,13,15,17,-1,-1,19,21,-1,-1,-1,23,25,27,-1,-1,29,31,-1,-1,-1,-1,-1,-1,-1,-1,-1,-1],"loss_changes":[1.0677543E1,2.3532877E0,1.9656405E0,1.0116415E0,2.1072028E0,1.5445251E0,3.9102983E-1,1.1164188E0,1.7050321E0,0E0,0E0,1.4499835E0,1.0329878E0,0E0,0E0,0E0,2.5489879E0,3.0136805E0,2.255124E0,0E0,0E0,3.9093566E-1,7.7224237E-1,0E0,0E0,0E0,0E0,0E0,0E0,0E0,0E0,0E0,0E0],"parents":[2147483647,0,0,1,1,2,2,3,3,4,4,5,5,6,6,7,7,8,8,11,11,12,12,16,16,17,17,18,18,21,21,22,22],"right_children":[2,4,6,8,10,12,14,16,18,-1,-1,20,22,-1,-1,-1,24,26,28,-1,-1,30,32,-1,-1,-1,-1,-1,-1,-1,-1,-1,-1],"split_conditions":[1.25E2,8.2E1,1.66E2,1.04E2,8.8E1,2.8E1,7E1,8.8E1,2.9E1,8.683064E-2,-4.4836998E-2,6.2E1,1.53E2,2.794365E-2,1.296208E-1,-1.0136902E-1,9.2E1,7.5E1,3.4E1,4.8057485E-2,-6.163019E-2,7.2E1,1.56E2,6.7739956E-2,-6.711712E-2,5.011182E-2,-8.977174E-2,8.068349E-2,-5.1404793E-2,1.0616159E-1,4.0153235E-2,-4.7194105E-2,3.659009E-2],"split_indices":[0,1,0,0,1,6,1,3,6,0,0,1,0,0,0,0,3,3,6,0,0,1,0,0,0,0,0,0,0,0,0,0,0],"split_type":[0,0,0,0,0,0,0,0,0,0,0,0,0,0,0,0,0,0,0,0,0,0,0,0,0,0,0,0,0,0,0,0,0],"sum_hessian":[4.009327E1,2.3918804E1,1.6174465E1,2.0882269E1,3.0365345E0,1.2149736E1,4.024728E0,1.1380635E1,9.501634E0,1.6300087E0,1.406526E0,3.175216E0,8.974521E0,1.1590046E0,2.8657234E0,6.5645633E0,4.8160715E0,6.1760235E0,3.3256102E0,1.054419E0,2.120797E0,6.549545E0,2.424976E0,1.0794824E0,3.7365892E0,1.3665892E0,4.8094344E0,1.8910905E0,1.4345198E0,1.8678964E0,4.6816483E0,1.0634696E0,1.3615065E0],"tree_param":{"num_deleted":"0","num_feature":"7","num_nodes":"33","size_leaf_vector":"1"}},{"base_weights":[-2.4673462E-2,-3.873448E-1,5.973164E-1,-6.388211E-1,-1.530967E-1,3.4348804E-1,1.0520395E0,-7.346471E-1,8.144031E-4,-7.754959E-1,1.667384E-1,5.116031E-1,-1.3317646E-1,2.643652E-2,1.2229595E-1,-3.6233985E-1,-8.986805E-1,-2.058719E-2,-8.813087E-2,8.28658E-2,-5.437279E-2,-2.397829E-2,8.180103E-1,-7.425779E-2,3.6497228E-2,-8.5443884E-2,7.435588E-2,-2.7104074E-2,-9.898568E-2,-5.4909684E-2,1.7426647E-2,6.1581045E-2,-5.6515258E-2,2.1372266E-2,9.5584854E-2],"categories":[],"categories_nodes":[],"categories_segments":[],"categories_sizes":[],"default_left":[0,0,0,0,0,0,0,0,0,0,0,0,0,0,0,0,0,0,0,0,0,0,0,0,0,0,0,0,0,0,0,0,0,0,0],"id":13,"left_children":[1,3,5,7,9,11,13,15,-1,17,19,21,23,-1,-1,25,27,-1,-1,-1,29,31,33,-1,-1,-1,-1,-1,-1,-1,-1,-1,-1,-1,-1],"loss_changes":[9.293055E0,1.4327302E0,1.391799E0,7.6326084E-1,3.068873E0,9.682572E-1,3.43987E-1,3.2478046E-1,0E0,1.31351E-1,1.5931404E0,1.4162359E0,1.4009707E0,0E0,0E0,3.3197987E0,1.1611128E-1,0E0,0E0,0E0,1.0986915E0,1.7567149E0,2.4899244E-1,0E0,0E0,0E0,0E0,0E0,0E0,0E0,0E0,0E0,0E0,0E0,0E0],"parents":[2147483647,0,0,1,1,2,2,3,3,4,4,5,5,6,6,7,7,9,9,10,10,11,11,12,12,15,15,16,16,20,20,21,21,22,22],"right_children":[2,4,6,8,10,12,14,16,-1,18,20,22,24,-1,-1,26,28,-1,-1,-1,30,32,34,-1,-1,-1,-1,-1,-1,-1,-1,-1,-1,-1,-1],"split_conditions":[1.28E2,2.6E1,1.66E2,8E1,8.8E1,1.53E2,7E1,7.5E1,8.144031E-4,8.7E1,1E2,3E1,1.55E2,2.643652E-2,1.2229595E-1,1.01E2,9.4E1,-2.058719E-2,-8.813087E-2,8.28658E-2,2.9E1,6.5E1,1.25E2,-7.425779E-2,3.6497228E-2,-8.5443884E-2,7.435588E-2,-2.7104074E-2,-9.898568E-2,-5.4909684E-2,1.7426647E-2,6.1581045E-2,-5.6515258E-2,2.1372266E-2,9.5584854E-2],"split_indices":[0,6,0,1,3,0,1,3,0,0,3,6,0,0,0,0,0,0,0,0,6,1,3,0,0,0,0,0,0,0,0,0,0,0,0],"split_type":[0,0,0,0,0,0,0,0,0,0,0,0,0,0,0,0,0,0,0,0,0,0,0,0,0,0,0,0,0,0,0,0,0,0,0],"sum_hessian":[3.917099E1,2.4981794E1,1.4189196E1,1.1214929E1,1.3766865E1,1.023266E1,3.9565356E0,9.650069E0,1.564859E0,4.189474E0,9.577391E0,7.5104847E0,2.7221756E0,1.1595484E0,2.796987E0,3.9327743E0,5.717295E0,1.1177726E0,3.0717015E0,1.7101575E0,7.8672333E0,3.0685635E0,4.441921E0,1.0036738E0,1.7185018E0,2.8790464E0,1.0537279E0,1.2291027E0,4.4881926E0,2.0436494E0,5.823584E0,1.3429645E0,1.7255988E0,1.2987386E0,3.1431828E0],"tree_param":{"num_deleted":"0","num_feature":"7","num_nodes":"35","size_leaf_vector":"1"}},{"base_weights":[-2.2603177E-2,-4.0241396E-1,5.1233774E-1,-7.3067003E-1,-5.6677103E-2,-7.335977E-2,7.103487E-1,-1.8928384E-2,-7.678883E-1,2.994154E-1,-6.614635E-1,-6.1690565E-2,2.2012208E-1,-1.793438E-2,8.13446E-1,-1.7333126E-2,-8.226239E-2,-6.714168E-2,5.4594237E-1,1.3364053E-2,-9.095152E-2,7.102653E-2,-4.626747E-2,9.665823E-1,1.6578811E-1,8.899437E-2,7.5142407E-3,1.4524499E-2,1.05228916E-1,-2.668423E-2,5.73533E-2],"categories":[],"categories_nodes":[],"categories_segments":[],"categories_sizes":[],"default_left":[0,0,0,0,0,0,0,0,0,0,0,0,0,0,0,0,0,0,0,0,0,0,0,0,0,0,0,0,0,0,0],"id":14,"left_children":[1,3,5,7,9,11,13,-1,15,17,19,-1,21,-1,23,-1,-1,-1,25,-1,-1,-1,-1,27,29,-1,-1,-1,-1,-1,-1],"loss_changes":[8.186279E0,2.6288855E0,1.9944386E0,9.6152306E-2,2.899399E0,9.5539594E-1,1.3025355E0,0E0,2.1172619E-1,2.4208586E0,1.0998075E0,0E0,1.691875E0,0E0,9.7844934E-1,0E0,0E0,0E0,1.1310596E0,0E0,0E0,0E0,0E0,4.8623848E-1,7.5326633E-1,0E0,0E0,0E0,0E0,0E0,0E0],"parents":[2147483647,0,0,1,1,2,2,3,3,4,4,5,5,6,6,8,8,9,9,10,10,12,12,14,14,18,18,23,23,24,24],"right_children":[2,4,6,8,10,12,14,-1,16,18,20,-1,22,-1,24,-1,-1,-1,26,-1,-1,-1,-1,28,30,-1,-1,-1,-1,-1,-1],"split_conditions":[1.25E2,3.36E1,2.97E1,8E1,3.8E1,1.12E2,1.6E1,-1.8928384E-2,1.4E1,2.4E1,3.5E1,-6.1690565E-2,1.48E2,-1.793438E-2,3.8E1,-1.7333126E-2,-8.226239E-2,-6.714168E-2,3.68E1,1.3364053E-2,-9.095152E-2,7.102653E-2,-4.626747E-2,1.05E2,4.09E1,8.899437E-2,7.5142407E-3,1.4524499E-2,1.05228916E-1,-2.668423E-2,5.73533E-2],"split_indices":[0,4,4,0,2,3,2,0,2,2,4,0,3,0,4,0,0,0,4,0,0,0,0,3,4,0,0,0,0,0,0],"split_type":[0,0,0,0,0,0,0,0,0,0,0,0,0,0,0,0,0,0,0,0,0,0,0,0,0,0,0,0,0,0,0],"sum_hessian":[3.8276756E1,2.252888E1,1.5747878E1,1.0985472E1,1.15434065E1,4.137896E0,1.16099825E1,1.0980937E0,9.887378E0,7.5833344E0,3.960072E0,1.0644494E0,3.0734465E0,1.12885E0,1.04811325E1,1.1847637E0,8.702615E0,1.1866726E0,6.3966618E0,1.051342E0,2.90873E0,1.7657092E0,1.3077374E0,8.07856E0,2.4025726E0,3.1816404E0,3.2150214E0,1.0179651E0,7.0605946E0,1.3333797E0,1.0691929E0],"tree_param":{"num_deleted":"0","num_feature":"7","num_nodes":"31","size_leaf_vector":"1"}},{"base_weights":[-2.327327E-2,-3.8083595E-1,4.73998E-1,-6.965002E-1,-5.6480438E-2,-7.4664116E-2,6.5903306E-1,-7.9960304E-1,-3.6995476E-1,2.7253273E-1,-6.334118E-1,-5.984601E-2,2.0575185E-1,-1.6989302E-2,7.566715E-1,-9.4931774E-2,-2.3958063E-2,2.4056548E-2,-8.0745004E-2,-6.5036245E-2,5.0090134E-1,1.2650639E-2,-8.817022E-2,6.6662125E-2,-4.417118E-2,8.987163E-1,1.589691E-1,8.145311E-2,6.9226036E-3,4.580974E-2,1.18344404E-1,-2.5206065E-2,5.4677885E-2],"categories":[],"categories_nodes":[],"categories_segments":[],"categories_sizes":[],"default_left":[0,0,0,0,0,0,0,0,0,0,0,0,0,0,0,0,0,0,0,0,0,0,0,0,0,0,0,0,0,0,0,0,0],"id":15,"left_children":[1,3,5,7,9,11,13,15,17,19,21,-1,23,-1,25,-1,-1,-1,-1,-1,27,-1,-1,-1,-1,29,31,-1,-1,-1,-1,-1,-1],"loss_changes":[7.0080404E0,2.304486E0,1.7250338E0,9.180117E-2,2.5223212E0,8.66534E-1,1.1358576E0,4.3402004E-1,1.4292746E0,2.1345692E0,1.0165294E0,0E0,1.500162E0,0E0,8.180094E-1,0E0,0E0,0E0,0E0,0E0,9.5153224E-1,0E0,0E0,0E0,0E0,5.7814217E-1,6.7788875E-1,0E0,0E0,0E0,0E0,0E0,0E0],"parents":[2147483647,0,0,1,1,2,2,3,3,4,4,5,5,6,6,7,7,8,8,9,9,10,10,12,12,14,14,20,20,25,25,26,26],"right_children":[2,4,6,8,10,12,14,16,18,20,22,-1,24,-1,26,-1,-1,-1,-1,-1,28,-1,-1,-1,-1,30,32,-1,-1,-1,-1,-1,-1],"split_conditions":[1.25E2,3.36E1,2.97E1,1.07E2,3.8E1,1.12E2,1.6E1,3.09E1,2.81E1,2.4E1,3.5E1,-5.984601E-2,1.48E2,-1.6989302E-2,3.8E1,-9.4931774E-2,-2.3958063E-2,2.4056548E-2,-8.0745004E-2,-6.5036245E-2,3.68E1,1.2650639E-2,-8.817022E-2,6.6662125E-2,-4.417118E-2,3.1E1,4.09E1,8.145311E-2,6.9226036E-3,4.580974E-2,1.18344404E-1,-2.5206065E-2,5.4677885E-2],"split_indices":[0,4,4,0,2,3,2,4,4,2,4,0,3,0,4,0,0,0,0,0,4,0,0,0,0,2,4,0,0,0,0,0,0],"split_type":[0,0,0,0,0,0,0,0,0,0,0,0,0,0,0,0,0,0,0,0,0,0,0,0,0,0,0,0,0,0,0,0,0],"sum_hessian":[3.7398808E1,2.1891722E1,1.5507085E1,1.0513044E1,1.1378677E1,4.0612464E0,1.1445838E1,6.8891907E0,3.6238537E0,7.5822687E0,3.7964091E0,1.0206193E0,3.0406272E0,1.1281453E0,1.0317693E1,4.887452E0,2.0017388E0,1.7006892E0,1.9231646E0,1.1374966E0,6.4447722E0,1.0557297E0,2.7406793E0,1.7589822E0,1.2816449E0,7.9295955E0,2.3880973E0,3.219076E0,3.225696E0,4.136782E0,3.7928135E0,1.3292738E0,1.0588233E0],"tree_param":{"num_deleted":"0","num_feature":"7","num_nodes":"33","size_leaf_vector":"1"}},{"base_weights":[-2.4446601E-2,-3.3300167E-1,4.8769993E-1,-6.2426174E-1,3.328169E-1,-5.9559047E-2,7.9193395E-1,-2.1731636E-1,-8.099885E-1,-2.6519114E-1,5.9154177E-1,-4.3701363E-1,3.2203925E-1,5.408055E-1,1.0769544E-1,-4.8670614E-1,6.497409E-2,-9.097647E-2,-3.1294405E-1,-6.2081244E-2,2.369044E-2,8.372675E-2,2.7128413E-1,-6.581364E-2,3.8973973E-3,6.544096E-2,-2.1920817E-2,-1.8485693E-2,7.454414E-1,-8.0704026E-2,-8.2525343E-4,2.9165229E-2,-6.8708375E-2,5.2083105E-2,-8.9797034E-4,9.5775716E-2,-8.51475E-3],"categories":[],"categories_nodes":[],"categories_segments":[],"categories_sizes":[],"default_left":[0,0,0,0,0,0,0,0,0,0,0,0,0,0,0,0,0,0,0,0,0,0,0,0,0,0,0,0,0,0,0,0,0,0,0,0,0],"id":16,"left_children":[1,3,5,7,9,11,13,15,17,19,21,23,25,27,-1,29,-1,-1,31,-1,-1,-1,33,-1,-1,-1,-1,-1,35,-1,-1,-1,-1,-1,-1,-1,-1],"loss_changes":[6.0997562E0,4.869865E0,2.4665954E0,1.1143069E0,1.3897281E0,1.022539E0,9.107494E-2,1.8850789E0,2.7845573E-1,7.000285E-1,2.3492455E-1,3.9424443E-1,7.9468405E-1,1.1788824E0,0E0,8.6636996E-1,0E0,0E0,9.746338E-1,0E0,0E0,0E0,2.864242E-1,0E0,0E0,0E0,0E0,0E0,1.0809746E0,0E0,0E0,0E0,0E0,0E0,0E0,0E0,0E0],"parents":[2147483647,0,0,1,1,2,2,3,3,4,4,5,5,6,6,7,7,8,8,9,9,10,10,11,11,12,12,13,13,15,15,18,18,22,22,28,28],"right_children":[2,4,6,8,10,12,14,16,18,20,22,24,26,28,-1,30,-1,-1,32,-1,-1,-1,34,-1,-1,-1,-1,-1,36,-1,-1,-1,-1,-1,-1,-1,-1],"split_conditions":[1.28E2,6.4E-1,3.42E-1,2.61E-1,9.7E1,2.9E1,1.66E2,2.46E-1,5.1E-1,3.1E1,8.01E-1,1.49E2,2.89E-1,2.9E1,1.0769544E-1,1.14E2,6.497409E-2,-9.097647E-2,5.34E-1,-6.2081244E-2,2.369044E-2,8.372675E-2,1E2,-6.581364E-2,3.8973973E-3,6.544096E-2,-2.1920817E-2,-1.8485693E-2,1.53E2,-8.0704026E-2,-8.2525343E-4,2.9165229E-2,-6.8708375E-2,5.2083105E-2,-8.9797034E-4,9.5775716E-2,-8.51475E-3],"split_indices":[0,5,5,5,0,2,0,5,5,2,5,0,5,2,0,3,0,0,5,0,0,0,3,0,0,0,0,0,0,0,0,0,0,0,0,0,0],"split_type":[0,0,0,0,0,0,0,0,0,0,0,0,0,0,0,0,0,0,0,0,0,0,0,0,0,0,0,0,0,0,0,0,0,0,0,0,0],"sum_hessian":[3.657213E1,2.3040571E1,1.3531558E1,1.6072239E1,6.968331E0,5.1221037E0,8.409454E0,5.716631E0,1.0355608E1,2.0968196E0,4.8715115E0,2.5020268E0,2.6200767E0,6.0108156E0,2.3986387E0,4.6962132E0,1.0204179E0,7.932831E0,2.4227774E0,1.0890388E0,1.0077808E0,1.8430386E0,3.0284727E0,1.447095E0,1.0549318E0,1.4937284E0,1.1263484E0,1.3434483E0,4.667367E0,2.401556E0,2.2946572E0,1.0104303E0,1.4123472E0,1.147965E0,1.8805078E0,3.5952425E0,1.0721247E0],"tree_param":{"num_deleted":"0","num_feature":"7","num_nodes":"37","size_leaf_vector":"1"}},{"base_weights":[-2.0243246E-2,-3.2997543E-1,3.8759628E-1,-4.626844E-1,1.5621307E-1,-2.2449656E-1,7.049835E-1,-1.7747709E-1,-6.73581E-1,6.542582E-2,-3.1960014E-1,1.2916037E-1,-4.4625956E-1,9.419827E-1,5.0824124E-2,-4.7843468E-1,7.399964E-2,-8.079397E-2,-2.918008E-1,-4.6950135E-2,5.1798864E-4,-9.86983E-3,3.0884543E-2,-6.625313E-2,8.748747E-3,2.4960076E-2,1.1055932E-1,4.439373E-2,-3.5488453E-2,-5.897584E-2,-1.1645955E-2,2.8930938E-2,-6.069938E-2],"categories":[],"categories_nodes":[],"categories_segments":[],"categories_sizes":[],"default_left":[0,0,0,0,0,0,0,0,0,0,0,0,0,0,0,0,0,0,0,0,0,0,0,0,0,0,0,0,0,0,0,0,0],"id":17,"left_children":[1,3,5,7,9,11,13,15,17,-1,19,21,23,25,27,29,-1,-1,31,-1,-1,-1,-1,-1,-1,-1,-1,-1,-1,-1,-1,-1,-1],"loss_changes":[4.769246E0,1.4545317E0,3.3286345E0,9.079137E-1,1.4748671E0,5.541668E-1,1.6557064E0,2.7340121E0,2.4962616E-1,0E0,1.6812846E-1,1.6213253E-1,5.330377E-1,6.313138E-1,7.922075E-1,2.1732676E-1,0E0,0E0,9.134917E-1,0E0,0E0,0E0,0E0,0E0,0E0,0E0,0E0,0E0,0E0,0E0,0E0,0E0,0E0],"parents":[2147483647,0,0,1,1,2,2,3,3,4,4,5,5,6,6,7,7,8,8,10,10,11,11,12,12,13,13,14,14,15,15,18,18],"right_children":[2,4,6,8,10,12,14,16,18,-1,20,22,24,26,28,30,-1,-1,32,-1,-1,-1,-1,-1,-1,-1,-1,-1,-1,-1,-1,-1,-1],"split_conditions":[5.1E-1,8.2E1,3.2E1,3.19E1,2.61E-1,6.82E-1,3.81E1,3.1E1,4.08E-1,6.542582E-2,3.7E1,5.91E-1,9.62E-1,2.7E1,8.86E-1,2.9E1,7.399964E-2,-8.079397E-2,4.43E-1,-4.6950135E-2,5.1798864E-4,-9.86983E-3,3.0884543E-2,-6.625313E-2,8.748747E-3,2.4960076E-2,1.1055932E-1,4.439373E-2,-3.5488453E-2,-5.897584E-2,-1.1645955E-2,2.8930938E-2,-6.069938E-2],"split_indices":[5,1,4,4,5,5,4,4,5,0,2,5,5,2,5,2,0,0,5,0,0,0,0,0,0,0,0,0,0,0,0,0,0],"split_type":[0,0,0,0,0,0,0,0,0,0,0,0,0,0,0,0,0,0,0,0,0,0,0,0,0,0,0,0,0,0,0,0,0],"sum_hessian":[3.5742493E1,2.0423136E1,1.5319355E1,1.6081821E1,4.3413157E0,5.330999E0,9.988356E0,7.6193213E0,8.4625E0,1.9378694E0,2.4034462E0,2.215462E0,3.1155372E0,7.009025E0,2.9793303E0,6.097648E0,1.5216731E0,5.4339166E0,3.028583E0,1.3395727E0,1.0638734E0,1.175511E0,1.0399508E0,2.045448E0,1.0700892E0,1.822401E0,5.186624E0,1.4652971E0,1.5140332E0,4.182165E0,1.9154834E0,1.0939065E0,1.9346765E0],"tree_param":{"num_deleted":"0","num_feature":"7","num_nodes":"33","size_leaf_vector":"1"}},{"base_weights":[-1.8424677E-2,-3.3782786E-1,4.1135192E-1,-5.824615E-1,2.1198964E-1,1.1955008E-3,6.545906E-1,-7.1944964E-1,-1.347516E-1,5.879061E-1,-3.937256E-1,3.074557E-1,-3.56756E-1,4.152874E-3,7.5579785E-2,-2.6694798E-1,-8.809604E-2,-4.495378E-1,3.6250196E-2,8.639555E-1,-1.4917515E-2,-6.935876E-2,1.2340471E-2,-3.7146475E-2,6.827474E-1,-5.2848518E-2,-2.414172E-3,2.4730999E-2,-7.238535E-2,-6.2658444E-2,-6.1045503E-3,1.7273763E-2,1.091548E-1,8.290637E-2,2.0147322E-2],"categories":[],"categories_nodes":[],"categories_segments":[],"categories_sizes":[],"default_left":[0,0,0,0,0,0,0,0,0,0,0,0,0,0,0,0,0,0,0,0,0,0,0,0,0,0,0,0,0,0,0,0,0,0,0],"id":18,"left_children":[1,3,5,7,9,11,13,15,17,19,21,23,25,-1,-1,27,-1,29,-1,31,-1,-1,-1,-1,33,-1,-1,-1,-1,-1,-1,-1,-1,-1,-1],"loss_changes":[5.106154E0,2.9893572E0,1.5832949E0,8.2380676E-1,1.8923508E0,8.674997E-1,5.869193E-1,5.8812237E-1,9.061259E-1,1.1262894E0,6.116165E-1,1.3396585E0,1.9574225E-1,0E0,0E0,1.2123871E0,0E0,1.9242394E-1,0E0,3.9565206E-1,0E0,0E0,0E0,0E0,5.107987E-2,0E0,0E0,0E0,0E0,0E0,0E0,0E0,0E0,0E0,0E0],"parents":[2147483647,0,0,1,1,2,2,3,3,4,4,5,5,6,6,7,7,8,8,9,9,10,10,11,11,12,12,15,15,17,17,19,19,24,24],"right_children":[2,4,6,8,10,12,14,16,18,20,22,24,26,-1,-1,28,-1,30,-1,32,-1,-1,-1,-1,34,-1,-1,-1,-1,-1,-1,-1,-1,-1,-1],"split_conditions":[1.25E2,6.4E-1,3.56E-1,3.1E1,9.17E-1,2.69E-1,2.4E1,2.49E-1,1.09E2,1.1E2,1.174E0,1.92E-1,3.8E1,4.152874E-3,7.5579785E-2,1.03E2,-8.809604E-2,1.27E2,3.6250196E-2,9E1,-1.4917515E-2,-6.935876E-2,1.2340471E-2,-3.7146475E-2,3.2E1,-5.2848518E-2,-2.414172E-3,2.4730999E-2,-7.238535E-2,-6.2658444E-2,-6.1045503E-3,1.7273763E-2,1.091548E-1,8.290637E-2,2.0147322E-2],"split_indices":[0,5,5,6,5,5,6,5,0,0,5,5,6,0,0,0,0,3,0,3,0,0,0,0,6,0,0,0,0,0,0,0,0,0,0],"split_type":[0,0,0,0,0,0,0,0,0,0,0,0,0,0,0,0,0,0,0,0,0,0,0,0,0,0,0,0,0,0,0,0,0,0,0],"sum_hessian":[3.5185E1,2.030706E1,1.4877941E1,1.4012861E1,6.2941995E0,5.912694E0,8.965247E0,1.0265053E1,3.7478077E0,3.9019742E0,2.3922253E0,3.262444E0,2.65025E0,1.4701518E0,7.4950953E0,3.3979356E0,6.8671174E0,2.353735E0,1.3940728E0,2.713567E0,1.1884072E0,1.2982192E0,1.0940061E0,1.1650361E0,2.097408E0,1.3594706E0,1.2907794E0,1.8144535E0,1.583482E0,1.1958786E0,1.1578565E0,1.1078646E0,1.6057024E0,1.0542526E0,1.0431553E0],"tree_param":{"num_deleted":"0","num_feature":"7","num_nodes":"35","size_leaf_vector":"1"}},{"base_weights":[-1.8237306E-2,-2.954542E-1,3.4030968E-1,-5.239532E-1,3.8953997E-2,-2.187151E-1,6.3223743E-1,-1.6474193E-1,-7.608129E-1,-2.7037576E-1,4.3966317E-1,-5.912814E-1,2.542357E-1,8.498209E-1,3.765239E-2,-4.6778724E-1,6.284292E-2,-1.806127E-2,-8.80069E-2,3.1348962E-1,-6.7994803E-1,9.228482E-2,-8.005068E-3,-1.0005901E-2,-7.3495805E-2,4.163308E-2,-2.6437603E-3,9.605198E-1,1.7792078E-2,4.0095165E-2,-3.409215E-2,-6.0099613E-2,-8.674713E-3,-2.1913862E-3,4.885417E-2,-3.2844585E-3,-9.181672E-2,1.0786822E-1,3.4998946E-2],"categories":[],"categories_nodes":[],"categories_segments":[],"categories_sizes":[],"default_left":[0,0,0,0,0,0,0,0,0,0,0,0,0,0,0,0,0,0,0,0,0,0,0,0,0,0,0,0,0,0,0,0,0,0,0,0,0,0,0],"id":19,"left_children":[1,3,5,7,9,11,13,15,17,19,21,23,25,27,29,31,-1,-1,-1,33,35,-1,-1,-1,-1,-1,-1,37,-1,-1,-1,-1,-1,-1,-1,-1,-1,-1,-1],"loss_changes":[3.6215026E0,1.587845E0,2.7348435E0,9.173846E-1,1.2663599E0,1.2430357E0,1.3535075E0,1.7713348E0,3.3294582E-1,1.6105887E0,1.1822741E0,1.9250047E-1,1.6714169E-1,4.0881014E-1,6.752104E-1,2.0269239E-1,0E0,0E0,0E0,1.923444E-1,5.479194E-1,0E0,0E0,0E0,0E0,0E0,0E0,8.881092E-2,0E0,0E0,0E0,0E0,0E0,0E0,0E0,0E0,0E0,0E0,0E0],"parents":[2147483647,0,0,1,1,2,2,3,3,4,4,5,5,6,6,7,7,8,8,9,9,10,10,11,11,12,12,13,13,14,14,15,15,19,19,20,20,27,27],"right_children":[2,4,6,8,10,12,14,16,18,20,22,24,26,28,30,32,-1,-1,-1,34,36,-1,-1,-1,-1,-1,-1,38,-1,-1,-1,-1,-1,-1,-1,-1,-1,-1,-1],"split_conditions":[5.1E-1,3.1E1,3.2E1,2.69E-1,3.41E1,2.9E1,3.81E1,2.46E-1,6E1,3E1,3.51E1,2.56E1,7.85E-1,4.3E1,8.86E-1,3.33E1,6.284292E-2,-1.806127E-2,-8.80069E-2,2.71E1,2.35E-1,9.228482E-2,-8.005068E-3,-1.0005901E-2,-7.3495805E-2,4.163308E-2,-2.6437603E-3,3.52E1,1.7792078E-2,4.0095165E-2,-3.409215E-2,-6.0099613E-2,-8.674713E-3,-2.1913862E-3,4.885417E-2,-3.2844585E-3,-9.181672E-2,1.0786822E-1,3.4998946E-2],"split_indices":[5,6,4,5,4,6,4,5,1,4,4,4,5,6,5,4,0,0,0,4,5,0,0,0,0,0,0,4,0,0,0,0,0,0,0,0,0,0,0],"split_type":[0,0,0,0,0,0,0,0,0,0,0,0,0,0,0,0,0,0,0,0,0,0,0,0,0,0,0,0,0,0,0,0,0,0,0,0,0,0,0],"sum_hessian":[3.442378E1,1.951296E1,1.4910819E1,1.1255406E1,8.257555E0,5.2013416E0,9.709477E0,5.1462893E0,6.1091166E0,4.843694E0,3.4138603E0,2.7694862E0,2.4318554E0,6.7940025E0,2.9154754E0,4.0204396E0,1.1258497E0,1.470311E0,4.638806E0,2.093665E0,2.7500293E0,1.3671331E0,2.0467274E0,1.0106269E0,1.7588593E0,1.2351816E0,1.1966738E0,5.464192E0,1.3298104E0,1.4575876E0,1.4578879E0,2.551279E0,1.4691607E0,1.01799E0,1.0756749E0,1.0461426E0,1.7038867E0,3.9356825E0,1.5285096E0],"tree_param":{"num_deleted":"0","num_feature":"7","num_nodes":"39","size_leaf_vector":"1"}},{"base_weights":[-1.5887894E-2,-5.288298E-1,1.8016453E-1,-7.959581E-1,-5.1175598E-2,-3.0740228E-1,4.5176566E-1,-9.953237E-3,-9.128292E-2,4.3177944E-2,-3.7929168E-1,4.3874156E-2,-4.4627592E-1,-3.5321426E-2,5.258086E-1,-6.424321E-2,1.096169E-2,-5.8601135E-1,-3.2331254E-2,6.207947E-1,-7.394234E-2,5.2198134E-3,-7.435157E-2,3.9358772E-2,-3.962877E-2,7.341492E-2,-4.5701014E-3,2.0398801E-2,-3.183755E-2],"categories":[],"categories_nodes":[],"categories_segments":[],"categories_sizes":[],"default_left":[0,0,0,0,0,0,0,0,0,0,0,0,0,0,0,0,0,0,0,0,0,0,0,0,0,0,0,0,0],"id":20,"left_children":[1,3,5,7,9,11,13,-1,-1,-1,15,-1,17,-1,19,-1,-1,21,23,25,27,-1,-1,-1,-1,-1,-1,-1,-1],"loss_changes":[3.5940235E0,1.2192285E0,3.5708613E0,4.1900468E-1,8.943641E-1,1.2182243E0,1.2019336E0,0E0,0E0,0E0,4.9209708E-1,0E0,4.9090993E-1,0E0,9.582634E-1,0E0,0E0,6.953671E-1,6.6488594E-1,1.0861254E0,2.7440453E-1,0E0,0E0,0E0,0E0,0E0,0E0,0E0,0E0],"parents":[2147483647,0,0,1,1,2,2,3,3,4,4,5,5,6,6,10,10,12,12,14,14,17,17,18,18,19,19,20,20],"right_children":[2,4,6,8,10,12,14,-1,-1,-1,16,-1,18,-1,20,-1,-1,22,24,26,28,-1,-1,-1,-1,-1,-1,-1,-1],"split_conditions":[8.8E1,5.1E-1,2.8E1,4E1,6.5E1,5.4E1,1.73E-1,-9.953237E-3,-9.128292E-2,4.3177944E-2,7.6E1,4.3874156E-2,1.55E2,-3.5321426E-2,1.88E2,-6.424321E-2,1.096169E-2,2.03E-1,1.7E2,8.8E1,3.7E1,5.2198134E-3,-7.435157E-2,3.9358772E-2,-3.962877E-2,7.341492E-2,-4.5701014E-3,2.0398801E-2,-3.183755E-2],"split_indices":[3,5,6,3,1,1,5,0,0,0,1,0,3,0,3,0,0,5,3,1,6,0,0,0,0,0,0,0,0],"split_type":[0,0,0,0,0,0,0,0,0,0,0,0,0,0,0,0,0,0,0,0,0,0,0,0,0,0,0,0,0],"sum_hessian":[3.379142E1,8.874701E0,2.491672E1,5.264267E0,3.6104333E0,8.867086E0,1.6049633E1,1.022559E0,4.2417083E0,1.3327782E0,2.2776554E0,1.0525632E0,7.814523E0,1.0343196E0,1.5015313E1,1.2765679E0,1.0010873E0,5.531558E0,2.2829654E0,1.2932094E1,2.0832198E0,1.2272635E0,4.3042946E0,1.0144241E0,1.2685413E0,1.0965607E1,1.9664862E0,1.0522425E0,1.0309774E0],"tree_param":{"num_deleted":"0","num_feature":"7","num_nodes":"29","size_leaf_vector":"1"}},{"base_weights":[-1.852566E-2,-5.058707E-1,1.6395703E-1,-6.5769166E-1,1.15252165E-2,-2.855747E-1,4.1141587E-1,-2.4793841E-1,-8.791922E-2,-8.6066805E-2,8.1530534E-2,5.120967E-1,1.3804743E-2,-6.7150205E-2,2.3693321E-2,7.515203E-2,-1.6575152E-1,8.5290635E-1,2.6455185E-1,-5.2566882E-2,5.723994E-2,1.6307851E-2,-5.5046447E-2,9.447383E-2,2.8568178E-2,-1.2066316E-2,8.579568E-2],"categories":[],"categories_nodes":[],"categories_segments":[],"categories_sizes":[],"default_left":[0,0,0,0,0,0,0,0,0,0,0,0,0,0,0,0,0,0,0,0,0,0,0,0,0,0,0],"id":21,"left_children":[1,3,5,7,-1,9,11,13,-1,-1,15,17,19,-1,-1,-1,21,23,25,-1,-1,-1,-1,-1,-1,-1,-1],"loss_changes":[3.1181026E0,9.756639E-1,2.9637346E0,4.915235E-1,0E0,2.112636E0,6.699467E-1,1.0084884E0,0E0,0E0,1.2542291E0,9.105272E-1,1.6403179E0,0E0,0E0,0E0,8.234525E-1,1.8315315E-3,2.2181077E0,0E0,0E0,0E0,0E0,0E0,0E0,0E0,0E0],"parents":[2147483647,0,0,1,1,2,2,3,3,5,5,6,6,7,7,10,10,11,11,12,12,16,16,17,17,18,18],"right_children":[2,4,6,8,-1,10,12,14,-1,-1,16,18,20,-1,-1,-1,22,24,26,-1,-1,-1,-1,-1,-1,-1,-1],"split_conditions":[8.8E1,8.2E1,2.8E1,6.5E1,1.15252165E-2,3.09E1,3.68E1,6.2E1,-8.791922E-2,-8.6066805E-2,3.22E1,3.4E1,4.09E1,-6.7150205E-2,2.3693321E-2,7.515203E-2,2.5E1,3.43E1,3.41E1,-5.2566882E-2,5.723994E-2,1.6307851E-2,-5.5046447E-2,9.447383E-2,2.8568178E-2,-1.2066316E-2,8.579568E-2],"split_indices":[3,1,6,1,0,4,4,1,0,0,4,6,4,0,0,0,6,4,4,0,0,0,0,0,0,0,0],"split_type":[0,0,0,0,0,0,0,0,0,0,0,0,0,0,0,0,0,0,0,0,0,0,0,0,0,0,0],"sum_hessian":[3.3129E1,8.542616E0,2.4586384E1,6.817372E0,1.725244E0,8.674439E0,1.5911945E1,3.1358078E0,3.681564E0,2.855947E0,5.818492E0,1.2467151E1,3.4447947E0,1.4682761E0,1.6675316E0,1.0188586E0,4.7996335E0,4.216535E0,8.250615E0,1.7823753E0,1.6624193E0,2.8983757E0,1.9012579E0,3.0562003E0,1.1603351E0,5.485988E0,2.764627E0],"tree_param":{"num_deleted":"0","num_feature":"7","num_nodes":"27","size_leaf_vector":"1"}},{"base_weights":[-1.6610507E-2,-2.732484E-1,3.072244E-1,-4.0067634E-1,1.6479361E-1,-1.96514E-1,5.6473047E-1,-1.24448396E-1,-6.079159E-1,-4.5243897E-2,4.6397963E-1,-5.36919E-1,2.1260558E-1,7.656008E-1,1.8502556E-2,-4.103707E-1,6.3982725E-2,-7.5304784E-2,-2.3658736E-1,7.540142E-2,-1.1570252E-2,-1.2319539E-2,-6.6614725E-2,3.95039E-2,-6.4562843E-3,8.689408E-1,1.3869964E-2,3.5395652E-2,-3.295135E-2,-8.1452884E-2,1.3427051E-2,-6.782252E-2,1.7016284E-2,2.4281645E-2,9.4742805E-2],"categories":[],"categories_nodes":[],"categories_segments":[],"categories_sizes":[],"default_left":[0,0,0,0,0,0,0,0,0,0,0,0,0,0,0,0,0,0,0,0,0,0,0,0,0,0,0,0,0,0,0,0,0,0,0],"id":22,"left_children":[1,3,5,7,9,11,13,15,17,-1,19,21,23,25,27,29,-1,-1,31,-1,-1,-1,-1,-1,-1,33,-1,-1,-1,-1,-1,-1,-1,-1,-1],"loss_changes":[2.863248E0,1.1369612E0,2.0899234E0,7.918298E-1,1.1391842E0,9.3617237E-1,1.1218328E0,1.9568043E0,2.7456427E-1,0E0,7.40073E-1,1.0535276E-1,1.9727513E-1,3.6827517E-1,5.6124926E-1,1.4854615E0,0E0,0E0,8.01402E-1,0E0,0E0,0E0,0E0,0E0,0E0,7.892752E-2,0E0,0E0,0E0,0E0,0E0,0E0,0E0,0E0,0E0],"parents":[2147483647,0,0,1,1,2,2,3,3,4,4,5,5,6,6,7,7,8,8,10,10,11,11,12,12,13,13,14,14,15,15,18,18,25,25],"right_children":[2,4,6,8,10,12,14,16,18,-1,20,22,24,26,28,30,-1,-1,32,-1,-1,-1,-1,-1,-1,34,-1,-1,-1,-1,-1,-1,-1,-1,-1],"split_conditions":[5.1E-1,8.2E1,3.2E1,3.19E1,3.25E1,2.9E1,3.81E1,3.1E1,3.1E1,-4.5243897E-2,8.8E1,2.62E1,7.85E-1,4.3E1,8.86E-1,2.8E1,6.3982725E-2,-7.5304784E-2,3.41E1,7.540142E-2,-1.1570252E-2,-1.2319539E-2,-6.6614725E-2,3.95039E-2,-6.4562843E-3,6.2E1,1.3869964E-2,3.5395652E-2,-3.295135E-2,-8.1452884E-2,1.3427051E-2,-6.782252E-2,1.7016284E-2,2.4281645E-2,9.4742805E-2],"split_indices":[5,1,4,4,4,6,4,4,6,0,1,4,5,6,5,6,0,0,4,0,0,0,0,0,0,1,0,0,0,0,0,0,0,0,0],"split_type":[0,0,0,0,0,0,0,0,0,0,0,0,0,0,0,0,0,0,0,0,0,0,0,0,0,0,0,0,0,0,0,0,0,0,0],"sum_hessian":[3.24419E1,1.8185875E1,1.4256024E1,1.415379E1,4.032085E0,4.902505E0,9.353519E0,6.753117E0,7.400673E0,1.149137E0,2.8829482E0,2.5054698E0,2.3970351E0,6.5450296E0,2.8084893E0,5.2515316E0,1.5015855E0,4.5818834E0,2.8187897E0,1.7210909E0,1.1618572E0,1.0612377E0,1.4442322E0,1.1890986E0,1.2079364E0,5.287359E0,1.2576706E0,1.4213628E0,1.3871266E0,2.7300959E0,2.521436E0,1.0314481E0,1.7873416E0,1.0449644E0,4.2423944E0],"tree_param":{"num_deleted":"0","num_feature":"7","num_nodes":"35","size_leaf_vector":"1"}},{"base_weights":[-1.6399145E-2,-1.422627E-1,8.370504E-2,-5.5875295E-1,1.5903184E-2,-7.909553E-2,-3.1287715E-1,-1.4872004E-1,3.0601472E-1,2.1143086E-2,-4.8350048E-1,-5.4916066E-1,7.70226E-2,6.301732E-1,-4.405051E-2,-7.473804E-2,-1.2989108E-2,-6.543212E-2,-1.8809076E-2,5.8498073E-2,-2.643891E-2,8.577059E-4,7.4742444E-2],"categories":[],"categories_nodes":[],"categories_segments":[],"categories_sizes":[],"default_left":[0,0,0,0,0,0,0,0,0,0,0,0,0,0,0,0,0,0,0,0,0,0,0],"id":23,"left_children":[1,3,-1,5,7,-1,9,11,13,-1,15,17,19,21,-1,-1,-1,-1,-1,-1,-1,-1,-1],"loss_changes":[3.6464543E0,1.9503477E0,0E0,2.1723342E-1,1.1120982E0,0E0,6.038939E-1,1.3910801E0,2.3132024E0,0E0,3.261007E-1,8.58413E-2,1.9615071E0,4.510429E-1,0E0,0E0,0E0,0E0,0E0,0E0,0E0,0E0,0E0],"parents":[2147483647,0,0,1,1,3,3,4,4,6,6,7,7,8,8,10,10,11,11,12,12,13,13],"right_children":[2,4,-1,6,8,-1,10,12,14,-1,16,18,20,22,-1,-1,-1,-1,-1,-1,-1,-1,-1],"split_conditions":[1.66E2,2.4E1,8.370504E-2,1E2,1.27E2,-7.909553E-2,1.1E2,3.33E1,1.53E2,2.1143086E-2,1.8E1,1.09E2,3.52E1,2.9E1,-4.405051E-2,-7.473804E-2,-1.2989108E-2,-6.543212E-2,-1.8809076E-2,5.8498073E-2,-2.643891E-2,8.577059E-4,7.4742444E-2],"split_indices":[0,2,0,0,0,0,0,4,0,0,2,0,4,4,0,0,0,0,0,0,0,0,0],"split_type":[0,0,0,0,0,0,0,0,0,0,0,0,0,0,0,0,0,0,0,0,0,0,0],"sum_hessian":[3.1837763E1,2.847211E1,3.365652E0,7.1394515E0,2.133266E1,2.531676E0,4.6077757E0,1.3920735E1,7.411925E0,1.0726044E0,3.535171E0,4.5020137E0,9.418721E0,5.276557E0,2.1353679E0,1.3867427E0,2.1484284E0,2.8575792E0,1.6444343E0,3.4991739E0,5.9195476E0,1.0076653E0,4.268892E0],"tree_param":{"num_deleted":"0","num_feature":"7","num_nodes":"23","size_leaf_vector":"1"}},{"base_weights":[-1.7810268E-2,-1.3651991E-1,7.8984433E-1,-5.3637403E-1,1.3523887E-2,1.112091E-2,9.644642E-2,-6.851111E-1,-2.2260815E-1,-1.396169E-1,2.8353375E-1,-9.406356E-3,-8.219273E-2,8.491692E-3,-4.6454698E-2,4.7011163E-2,-2.6104486E-1,6.5903705E-1,-3.0099723E-1,-7.296165E-2,-1.2123393E-2,1.6762039E-2,7.8134865E-2,-5.2051634E-2,4.697179E-3],"categories":[],"categories_nodes":[],"categories_segments":[],"categories_sizes":[],"default_left":[0,0,0,0,0,0,0,0,0,0,0,0,0,0,0,0,0,0,0,0,0,0,0,0,0],"id":24,"left_children":[1,3,5,7,9,-1,-1,11,13,15,17,-1,-1,-1,-1,-1,19,21,23,-1,-1,-1,-1,-1,-1],"loss_changes":[3.1957996E0,1.743117E0,3.9930463E-1,2.170682E-1,9.4985193E-1,0E0,0E0,3.182094E-1,3.3914527E-1,1.2123398E0,2.0194879E0,0E0,0E0,0E0,0E0,0E0,7.576807E-1,1.9151211E-1,3.2477522E-1,0E0,0E0,0E0,0E0,0E0,0E0],"parents":[2147483647,0,0,1,1,2,2,3,3,4,4,7,7,8,8,9,9,10,10,16,16,17,17,18,18],"right_children":[2,4,6,8,10,-1,-1,12,14,16,18,-1,-1,-1,-1,-1,20,22,24,-1,-1,-1,-1,-1,-1],"split_conditions":[1.66E2,2.4E1,1.4E2,2.8E1,1.27E2,1.112091E-2,9.644642E-2,5.9E1,3.4E1,2.7E1,1.46E2,-9.406356E-3,-8.219273E-2,8.491692E-3,-4.6454698E-2,4.7011163E-2,3E1,3.4E1,4E1,-7.296165E-2,-1.2123393E-2,1.6762039E-2,7.8134865E-2,-5.2051634E-2,4.697179E-3],"split_indices":[0,2,3,6,0,0,0,3,6,2,0,0,0,0,0,0,2,2,6,0,0,0,0,0,0],"split_type":[0,0,0,0,0,0,0,0,0,0,0,0,0,0,0,0,0,0,0,0,0,0,0,0,0],"sum_hessian":[3.1207832E1,2.7933165E1,3.2746685E0,6.9192257E0,2.1013939E1,1.0051519E0,2.2695167E0,3.891157E0,3.0280685E0,1.3717014E1,7.296924E0,1.0486207E0,2.8425362E0,1.619086E0,1.4089826E0,1.8011812E0,1.1915833E1,4.365232E0,2.9316924E0,1.768884E0,1.014695E1,1.3423702E0,3.0228617E0,1.4935834E0,1.4381089E0],"tree_param":{"num_deleted":"0","num_feature":"7","num_nodes":"25","size_leaf_vector":"1"}},{"base_weights":[-1.685466E-2,-1.5222344E-1,6.28251E-1,-3.8475424E-1,2.8106996E-1,7.5008285E-1,1.2818155E-2,-5.212122E-1,6.809245E-2,-1.3553236E-1,5.2799946E-1,1.5390825E-2,9.2591375E-2,-1.452084E-1,-6.8712133E-1,3.4397683E-1,-4.677748E-2,-6.637025E-2,2.878092E-1,7.338219E-1,1.385627E-1,-3.9926417E-2,4.6207245E-2,-8.378961E-2,-1.02692706E-4,-7.288489E-3,5.3603508E-2,5.724583E-2,-1.2722082E-2,8.968691E-2,2.7569273E-2,-3.0994896E-2,5.010566E-2],"categories":[],"categories_nodes":[],"categories_segments":[],"categories_sizes":[],"default_left":[0,0,0,0,0,0,0,0,0,0,0,0,0,0,0,0,0,0,0,0,0,0,0,0,0,0,0,0,0,0,0,0,0],"id":25,"left_children":[1,3,5,7,9,11,-1,13,15,17,19,-1,-1,21,23,25,-1,-1,27,29,31,-1,-1,-1,-1,-1,-1,-1,-1,-1,-1,-1,-1],"loss_changes":[2.8610685E0,2.8264794E0,2.5036573E-1,1.1465354E0,1.1003021E0,3.1529665E-1,0E0,7.693293E-1,9.071544E-1,1.2010672E0,4.1796196E-1,0E0,0E0,1.0381787E0,9.7138596E-1,3.519884E-1,0E0,0E0,4.5146048E-1,5.2167654E-2,7.2017854E-1,0E0,0E0,0E0,0E0,0E0,0E0,0E0,0E0,0E0,0E0,0E0,0E0],"parents":[2147483647,0,0,1,1,2,2,3,3,4,4,5,5,7,7,8,8,9,9,10,10,13,13,14,14,15,15,18,18,19,19,20,20],"right_children":[2,4,6,8,10,12,-1,14,16,18,20,-1,-1,22,24,26,-1,-1,28,30,32,-1,-1,-1,-1,-1,-1,-1,-1,-1,-1,-1,-1],"split_conditions":[1.55E2,6.13E-1,4.8E1,4E1,3.19E1,3.05E-1,1.2818155E-2,2.61E-1,4.7E1,1.07E2,9.17E-1,1.5390825E-2,9.2591375E-2,2.45E-1,1.36E2,1.03E2,-4.677748E-2,-6.637025E-2,1.21E2,1.1E2,1.21E2,-3.9926417E-2,4.6207245E-2,-8.378961E-2,-1.02692706E-4,-7.288489E-3,5.3603508E-2,5.724583E-2,-1.2722082E-2,8.968691E-2,2.7569273E-2,-3.0994896E-2,5.010566E-2],"split_indices":[0,5,6,6,4,5,0,5,6,0,5,0,0,5,0,0,0,0,0,0,0,0,0,0,0,0,0,0,0,0,0,0,0],"split_type":[0,0,0,0,0,0,0,0,0,0,0,0,0,0,0,0,0,0,0,0,0,0,0,0,0,0,0,0,0,0,0,0,0],"sum_hessian":[3.0667507E1,2.5979921E1,4.6875854E0,1.697966E1,9.000262E0,3.3672628E0,1.3203228E0,1.293188E1,4.04778E0,3.5172803E0,5.482982E0,1.1940434E0,2.1732192E0,4.533264E0,8.398615E0,2.9084795E0,1.1393003E0,1.3122802E0,2.205E0,3.0085878E0,2.4743946E0,3.4376588E0,1.0956056E0,6.704085E0,1.6945304E0,1.1130705E0,1.7954091E0,1.0829437E0,1.1220564E0,1.5125852E0,1.4960027E0,1.1707662E0,1.3036284E0],"tree_param":{"num_deleted":"0","num_feature":"7","num_nodes":"33","size_leaf_vector":"1"}},{"base_weights":[-1.089675E-2,-1.19163476E-1,7.2892165E-1,-6.6595286E-1,-1.19143715E-2,8.8295285E-3,9.08396E-2,-1.4987578E-2,-7.931439E-2,-7.14362E-2,6.2221862E-2,-4.1940287E-1,1.505785E-1,1.5291685E-2,-6.986072E-2,2.205677E-2,-2.6571399E-2],"categories":[],"categories_nodes":[],"categories_segments":[],"categories_sizes":[],"default_left":[0,0,0,0,0,0,0,0,0,0,0,0,0,0,0,0,0],"id":26,"left_children":[1,3,5,7,9,-1,-1,-1,-1,-1,11,13,15,-1,-1,-1,-1],"loss_changes":[2.5675545E0,1.6268233E0,3.9053416E-1,1.7998624E-1,1.3111453E0,0E0,0E0,0E0,0E0,0E0,1.0385691E0,7.168251E-1,6.4435935E-1,0E0,0E0,0E0,0E0],"parents":[2147483647,0,0,1,1,2,2,3,3,4,4,10,10,11,11,12,12],"right_children":[2,4,6,8,10,-1,-1,-1,-1,-1,12,14,16,-1,-1,-1,-1],"split_conditions":[1.66E2,2.64E1,7E1,2.32E1,1.8E1,8.8295285E-3,9.08396E-2,-1.4987578E-2,-7.931439E-2,-7.14362E-2,9.3E1,8.1E1,1.53E2,1.5291685E-2,-6.986072E-2,2.205677E-2,-2.6571399E-2],"split_indices":[0,4,1,4,2,0,0,0,0,0,0,0,0,0,0,0,0],"split_type":[0,0,0,0,0,0,0,0,0,0,0,0,0,0,0,0,0],"sum_hessian":[2.9970846E1,2.6876593E1,3.0942535E0,3.5529811E0,2.332361E1,1.003668E0,2.0905855E0,1.1332351E0,2.4197462E0,1.4021653E0,2.1921446E1,2.8173883E0,1.9104057E1,1.0720947E0,1.7452936E0,1.6756954E1,2.3471024E0],"tree_param":{"num_deleted":"0","num_feature":"7","num_nodes":"17","size_leaf_vector":"1"}},{"base_weights":[-1.4276847E-2,-1.3892023E-1,5.812573E-1,-5.5153376E-1,1.1240642E-2,7.0378727E-1,1.0147723E-2,-9.531285E-3,-6.1603415E-1,7.498751E-2,-5.8406442E-2,8.352121E-2,2.3235325E-2,-7.232285E-2,-1.741914E-2,-1.2090586E-1,5.384918E-1,4.5639977E-2,-2.384276E-2,1.740941E-2,6.688558E-2],"categories":[],"categories_nodes":[],"categories_segments":[],"categories_sizes":[],"default_left":[0,0,0,0,0,0,0,0,0,0,0,0,0,0,0,0,0,0,0,0,0],"id":27,"left_children":[1,3,5,7,9,11,-1,-1,13,15,-1,-1,-1,-1,-1,17,19,-1,-1,-1,-1],"loss_changes":[2.3530302E0,1.6245947E0,2.513802E-1,1.4696193E-1,8.077499E-1,6.6496134E-2,0E0,0E0,1.5539145E-1,1.796627E0,0E0,0E0,0E0,0E0,0E0,1.073686E0,1.6139495E-1,0E0,0E0,0E0,0E0],"parents":[2147483647,0,0,1,1,2,2,3,3,4,4,5,5,8,8,9,9,15,15,16,16],"right_children":[2,4,6,8,10,12,-1,-1,14,16,-1,-1,-1,-1,-1,18,20,-1,-1,-1,-1],"split_conditions":[1.55E2,2.4E1,4.8E1,5.5E1,1.52E2,1.76E2,1.0147723E-2,-9.531285E-3,3.1E1,1.27E2,-5.8406442E-2,8.352121E-2,2.3235325E-2,-7.232285E-2,-1.741914E-2,2.7E1,3E1,4.5639977E-2,-2.384276E-2,1.740941E-2,6.688558E-2],"split_indices":[0,2,6,3,0,0,0,0,6,0,0,0,0,0,0,2,6,0,0,0,0],"split_type":[0,0,0,0,0,0,0,0,0,0,0,0,0,0,0,0,0,0,0,0,0],"sum_hessian":[2.9611618E1,2.5120672E1,4.4909463E0,5.9895573E0,1.9131115E1,3.2054243E0,1.2855219E0,1.0488182E0,4.9407387E0,1.807015E1,1.0609651E0,1.9032116E0,1.3022127E0,3.4635978E0,1.477141E0,1.3221446E1,4.8487043E0,1.7485341E0,1.1472912E1,1.8929412E0,2.9557633E0],"tree_param":{"num_deleted":"0","num_feature":"7","num_nodes":"21","size_leaf_vector":"1"}},{"base_weights":[-1.0994586E-2,-2.6369375E-1,3.0147853E-1,-4.8181704E-1,2.6027295E-1,-2.6042336E-1,5.179285E-1,-2.1912402E-2,-8.1070885E-2,-8.921392E-2,5.1699054E-1,-6.5961316E-2,1.5109776E-1,6.30397E-1,2.0146484E-3,-3.5903624E-1,6.8534E-2,-3.169785E-2,2.0249447E-2,6.32169E-2,1.253581E-2,4.50969E-2,-2.293774E-2,2.7016836E-1,7.634406E-1,-6.1892804E-2,2.819101E-2,7.1829446E-2,-1.4306401E-2,8.557514E-2,1.9583728E-2],"categories":[],"categories_nodes":[],"categories_segments":[],"categories_sizes":[],"default_left":[0,0,0,0,0,0,0,0,0,0,0,0,0,0,0,0,0,0,0,0,0,0,0,0,0,0,0,0,0,0,0],"id":28,"left_children":[1,3,5,7,9,11,13,15,-1,17,19,-1,21,23,-1,25,-1,-1,-1,-1,-1,-1,-1,27,29,-1,-1,-1,-1,-1,-1],"loss_changes":[2.4589813E0,2.0905306E0,1.830356E0,1.8716247E0,5.578117E-1,8.4581184E-1,5.6944585E-1,1.7329198E0,0E0,2.813182E-1,7.5704575E-2,0E0,4.5143947E-1,1.9866467E-1,0E0,9.8724955E-1,0E0,0E0,0E0,0E0,0E0,0E0,0E0,8.113557E-1,1.2700129E-1,0E0,0E0,0E0,0E0,0E0,0E0],"parents":[2147483647,0,0,1,1,2,2,3,3,4,4,5,5,6,6,7,7,9,9,10,10,12,12,13,13,15,15,23,23,24,24],"right_children":[2,4,6,8,10,12,14,16,-1,18,20,-1,22,24,-1,26,-1,-1,-1,-1,-1,-1,-1,28,30,-1,-1,-1,-1,-1,-1],"split_conditions":[5.1E-1,1.36E2,1.04E2,2.61E-1,3.16E1,3.2E1,3.8E1,8.2E1,-8.1070885E-2,1.55E2,7.4E1,-6.5961316E-2,8.86E-1,3.09E1,2.0146484E-3,1.19E2,6.8534E-2,-3.169785E-2,2.0249447E-2,6.32169E-2,1.253581E-2,4.50969E-2,-2.293774E-2,6.82E-1,1.57E2,-6.1892804E-2,2.819101E-2,7.1829446E-2,-1.4306401E-2,8.557514E-2,1.9583728E-2],"split_indices":[5,0,0,5,4,4,4,1,0,0,1,0,5,4,0,0,0,0,0,0,0,0,0,5,0,0,0,0,0,0,0],"split_type":[0,0,0,0,0,0,0,0,0,0,0,0,0,0,0,0,0,0,0,0,0,0,0,0,0,0,0,0,0,0,0],"sum_hessian":[2.9134655E1,1.6194311E1,1.2940343E1,1.1491098E1,4.7032123E0,3.5420525E0,9.398291E0,5.235993E0,6.255106E0,2.2680483E0,2.435164E0,1.4919468E0,2.0501058E0,7.448883E0,1.9494072E0,3.8792386E0,1.3567542E0,1.2249696E0,1.0430787E0,1.4071375E0,1.0280266E0,1.0428813E0,1.0072246E0,2.8265085E0,4.622375E0,2.7845204E0,1.0947183E0,1.0018393E0,1.8246691E0,3.5391383E0,1.0832366E0],"tree_param":{"num_deleted":"0","num_feature":"7","num_nodes":"31","size_leaf_vector":"1"}},{"base_weights":[-5.9053353E-3,-1.9391668E-1,3.7108555E-1,-5.917883E-1,-3.5042707E-2,-1.9703219E-2,5.281878E-1,-6.7944235E-1,-9.783511E-3,-5.68767E-2,5.045506E-2,6.808144E-1,1.744878E-1,-9.958895E-3,-8.1204735E-2,1.6893803E-1,-3.34686E-1,9.568853E-2,3.536176E-1,4.7465798E-2,-1.4382749E-2,5.166291E-2,-9.492674E-3,-6.737747E-2,9.913482E-3,-1.8556107E-2,8.112547E-2],"categories":[],"categories_nodes":[],"categories_segments":[],"categories_sizes":[],"default_left":[0,0,0,0,0,0,0,0,0,0,0,0,0,0,0,0,0,0,0,0,0,0,0,0,0,0,0],"id":29,"left_children":[1,3,5,7,9,-1,11,13,-1,-1,15,17,19,-1,-1,21,23,-1,25,-1,-1,-1,-1,-1,-1,-1,-1],"loss_changes":[2.1623042E0,1.2646611E0,1.010609E0,1.820457E-1,7.40334E-1,0E0,3.254087E-1,2.810259E-1,0E0,0E0,7.118403E-1,1.4971805E-1,4.3374082E-1,0E0,0E0,1.1175269E0,6.1311746E-1,0E0,1.1520681E0,0E0,0E0,0E0,0E0,0E0,0E0,0E0,0E0],"parents":[2147483647,0,0,1,1,2,2,3,3,4,4,6,6,7,7,10,10,11,11,12,12,15,15,16,16,18,18],"right_children":[2,4,6,8,10,-1,12,14,-1,-1,16,18,20,-1,-1,22,24,-1,26,-1,-1,-1,-1,-1,-1,-1,-1],"split_conditions":[6.37E-1,8.8E1,6.2E1,4.97E-1,1.6E1,-1.9703219E-2,9.17E-1,4.2E1,-9.783511E-3,-5.68767E-2,3.7E1,6.8E1,3.2E1,-9.958895E-3,-8.1204735E-2,2.69E-1,2.85E-1,9.568853E-2,3.3E1,4.7465798E-2,-1.4382749E-2,5.166291E-2,-9.492674E-3,-6.737747E-2,9.913482E-3,-1.8556107E-2,8.112547E-2],"split_indices":[5,3,1,5,2,0,5,3,0,0,2,1,2,0,0,5,5,0,2,0,0,0,0,0,0,0,0],"split_type":[0,0,0,0,0,0,0,0,0,0,0,0,0,0,0,0,0,0,0,0,0,0,0,0,0,0,0],"sum_hessian":[2.8491915E1,1.933491E1,9.157006E0,4.739866E0,1.4595043E1,1.9285961E0,7.2284102E0,3.7065952E0,1.0332705E0,1.2347337E0,1.336031E1,4.4034314E0,2.8249788E0,1.0157882E0,2.690807E0,1.0646447E1,2.7138617E0,1.3445112E0,3.0589201E0,1.201146E0,1.623833E0,4.1802526E0,6.4661946E0,1.2127888E0,1.501073E0,1.6772921E0,1.3816279E0],"tree_param":{"num_deleted":"0","num_feature":"7","num_nodes":"27","size_leaf_vector":"1"}},{"base_weights":[-5.672116E-3,-1.0419736E-1,6.622217E-1,-3.245247E-1,3.1337827E-1,8.541513E-3,8.338568E-2,-4.446524E-1,7.8613624E-2,-1.8495258E-2,4.6208712E-1,-6.20077E-1,-5.95651E-2,5.202655E-2,-3.3120573E-2,6.1817116E-1,1.1995421E-1,-7.1831755E-2,-9.261854E-3,3.5624724E-2,-5.799001E-2,8.7747544E-2,1.1746663E-2,-3.3635907E-2,5.1018763E-2],"categories":[],"categories_nodes":[],"categories_segments":[],"categories_sizes":[],"default_left":[0,0,0,0,0,0,0,0,0,0,0,0,0,0,0,0,0,0,0,0,0,0,0,0,0],"id":30,"left_children":[1,3,5,7,9,-1,-1,11,13,-1,15,17,19,-1,-1,21,23,-1,-1,-1,-1,-1,-1,-1,-1],"loss_changes":[1.9862088E0,2.5171182E0,3.1302857E-1,8.910215E-1,7.9514605E-1,0E0,0E0,8.932214E-1,1.060639E0,0E0,3.3497918E-1,4.1814828E-1,1.3783205E0,0E0,0E0,5.487546E-1,8.199504E-1,0E0,0E0,0E0,0E0,0E0,0E0,0E0,0E0],"parents":[2147483647,0,0,1,1,2,2,3,3,4,4,7,7,8,8,10,10,11,11,12,12,15,15,16,16],"right_children":[2,4,6,8,10,-1,-1,12,14,-1,16,18,20,-1,-1,22,24,-1,-1,-1,-1,-1,-1,-1,-1],"split_conditions":[1.66E2,6.37E-1,3.05E-1,8.2E1,6.2E1,8.541513E-3,8.338568E-2,1.25E2,2.61E-1,-1.8495258E-2,9.17E-1,5.1E-1,7.2E1,5.202655E-2,-3.3120573E-2,1.1E2,1.21E2,-7.1831755E-2,-9.261854E-3,3.5624724E-2,-5.799001E-2,8.7747544E-2,1.1746663E-2,-3.3635907E-2,5.1018763E-2],"split_indices":[0,5,5,1,1,0,0,0,5,0,5,5,1,0,0,0,0,0,0,0,0,0,0,0,0],"split_type":[0,0,0,0,0,0,0,0,0,0,0,0,0,0,0,0,0,0,0,0,0,0,0,0,0],"sum_hessian":[2.8134935E1,2.5253607E1,2.8813279E0,1.6677053E1,8.576553E0,1.0042028E0,1.877125E0,1.2769117E1,3.907936E0,1.9151306E0,6.6614227E0,8.3534975E0,4.4156194E0,1.751206E0,2.15673E0,4.020445E0,2.6409779E0,6.7368875E0,1.61661E0,2.6295958E0,1.7860236E0,2.1529803E0,1.8674645E0,1.2810543E0,1.3599237E0],"tree_param":{"num_deleted":"0","num_feature":"7","num_nodes":"25","size_leaf_vector":"1"}},{"base_weights":[-1.8154361E-3,-9.543806E-2,6.354562E-1,5.6126833E-2,-1.5900539E-1,9.6590845E-3,8.107885E-2,-6.373763E-1,-6.1989777E-2,-7.28504E-2,-1.9279232E-2,-4.458284E-1,1.7469117E-2,-6.811642E-2,6.251998E-3,4.5819413E-2,-1.0416472E-2],"categories":[],"categories_nodes":[],"categories_segments":[],"categories_sizes":[],"default_left":[0,0,0,0,0,0,0,0,0,0,0,0,0,0,0,0,0],"id":31,"left_children":[1,3,5,-1,7,-1,-1,9,11,-1,-1,13,15,-1,-1,-1,-1],"loss_changes":[1.7655307E0,1.1656137E0,2.7984834E-1,0E0,1.087682E0,0E0,0E0,2.1097183E-2,6.574421E-1,0E0,0E0,4.8413885E-1,1.0453364E0,0E0,0E0,0E0,0E0],"parents":[2147483647,0,0,1,1,2,2,4,4,7,7,8,8,11,11,12,12],"right_children":[2,4,6,-1,8,-1,-1,10,12,-1,-1,14,16,-1,-1,-1,-1],"split_conditions":[1.66E2,5.2E1,1.45E2,5.6126833E-2,9.3E1,9.6590845E-3,8.107885E-2,7.6E1,6.2E1,-7.28504E-2,-1.9279232E-2,1.19E2,6.8E1,-6.811642E-2,6.251998E-3,4.5819413E-2,-1.0416472E-2],"split_indices":[0,1,3,0,0,0,0,1,1,0,0,0,1,0,0,0,0],"split_type":[0,0,0,0,0,0,0,0,0,0,0,0,0,0,0,0,0],"sum_hessian":[2.7575207E1,2.4784338E1,2.7908685E0,1.4963381E0,2.3288E1,1.0658848E0,1.7249837E0,2.9874508E0,2.030055E1,1.9492813E0,1.0381695E0,2.6909053E0,1.7609644E1,1.6070014E0,1.0839038E0,3.2103493E0,1.4399295E1],"tree_param":{"num_deleted":"0","num_feature":"7","num_nodes":"17","size_leaf_vector":"1"}},{"base_weights":[-8.2560873E-4,-8.936689E-2,6.098017E-1,-6.0714716E-1,7.564088E-3,9.170489E-3,7.834643E-2,-1.1143606E-2,-7.426711E-2,-6.413432E-2,7.3585354E-2,-2.3205337E-1,1.6226915E-1,-5.4900598E-2,7.2626546E-3,7.726372E-2,7.448226E-3],"categories":[],"categories_nodes":[],"categories_segments":[],"categories_sizes":[],"default_left":[0,0,0,0,0,0,0,0,0,0,0,0,0,0,0,0,0],"id":32,"left_children":[1,3,5,7,9,-1,-1,-1,-1,-1,11,13,15,-1,-1,-1,-1],"loss_changes":[1.5835904E0,1.2880608E0,2.6190305E-1,1.889689E-1,1.0123299E0,0E0,0E0,0E0,0E0,0E0,6.162065E-1,5.431872E-1,8.6046195E-1,0E0,0E0,0E0,0E0],"parents":[2147483647,0,0,1,1,2,2,3,3,4,4,10,10,11,11,12,12],"right_children":[2,4,6,8,10,-1,-1,-1,-1,-1,12,14,16,-1,-1,-1,-1],"split_conditions":[1.66E2,2.64E1,1.45E2,1.6E1,1.8E1,9.170489E-3,7.834643E-2,-1.1143606E-2,-7.426711E-2,-6.413432E-2,8.8E1,3.36E1,9.2E1,-5.4900598E-2,7.2626546E-3,7.726372E-2,7.448226E-3],"split_indices":[0,4,3,2,2,0,0,0,0,0,3,4,3,0,0,0,0],"split_type":[0,0,0,0,0,0,0,0,0,0,0,0,0,0,0,0,0],"sum_hessian":[2.7282137E1,2.4572727E1,2.7094107E0,3.0447502E0,2.1527977E1,1.0637958E0,1.6456149E0,1.04493E0,1.9998201E0,1.1833103E0,2.0344666E1,4.211965E0,1.6132702E1,1.6713654E0,2.5405996E0,1.0476031E0,1.5085098E1],"tree_param":{"num_deleted":"0","num_feature":"7","num_nodes":"17","size_leaf_vector":"1"}},{"base_weights":[-1.8062108E-3,-1.7513177E-1,3.3906546E-1,-2.9519862E-1,5.126786E-1,-6.7747004E-2,5.197533E-1,-4.141696E-1,8.910153E-2,6.757974E-2,1.0058172E-2,3.7330385E-2,-4.3371126E-2,2.419073E-1,7.123873E-2,-5.8269364E-1,-5.8263037E-2,4.972353E-2,-3.0179901E-2,5.919191E-1,-4.0406283E-2,-6.81531E-2,-7.9908585E-3,3.241362E-2,-5.3993274E-2,7.318912E-2,1.7117195E-2],"categories":[],"categories_nodes":[],"categories_segments":[],"categories_sizes":[],"default_left":[0,0,0,0,0,0,0,0,0,0,0,0,0,0,0,0,0,0,0,0,0,0,0,0,0,0,0],"id":33,"left_children":[1,3,5,7,9,11,13,15,17,-1,-1,-1,-1,19,-1,21,23,-1,-1,25,-1,-1,-1,-1,-1,-1,-1],"loss_changes":[1.7125597E0,1.7376586E0,7.5354874E-1,8.1362724E-1,1.4849144E-1,7.898269E-1,1.9602346E-1,7.547443E-1,9.220713E-1,0E0,0E0,0E0,0E0,1.2186359E0,0E0,3.834865E-1,1.1579716E0,0E0,0E0,6.408203E-2,0E0,0E0,0E0,0E0,0E0,0E0,0E0],"parents":[2147483647,0,0,1,1,2,2,3,3,4,4,5,5,6,6,7,7,8,8,13,13,15,15,16,16,19,19],"right_children":[2,4,6,8,10,12,14,16,18,-1,-1,-1,-1,20,-1,22,24,-1,-1,26,-1,-1,-1,-1,-1,-1,-1],"split_conditions":[6.37E-1,1.66E2,1.07E2,8.2E1,1.8E2,8.86E-1,8.93E-1,1.25E2,2.61E-1,6.757974E-2,1.0058172E-2,3.7330385E-2,-4.3371126E-2,8.01E-1,7.123873E-2,5.1E-1,7.2E1,4.972353E-2,-3.0179901E-2,6.98E-1,-4.0406283E-2,-6.81531E-2,-7.9908585E-3,3.241362E-2,-5.3993274E-2,7.318912E-2,1.7117195E-2],"split_indices":[5,0,0,1,0,5,5,0,5,0,0,0,0,5,0,5,1,0,0,5,0,0,0,0,0,0,0],"split_type":[0,0,0,0,0,0,0,0,0,0,0,0,0,0,0,0,0,0,0,0,0,0,0,0,0,0,0],"sum_hessian":[2.6981194E1,1.8208704E1,8.7724905E0,1.59885025E1,2.220201E0,2.8902502E0,5.882241E0,1.2149543E1,3.83896E0,1.1321621E0,1.0880389E0,1.3015724E0,1.5886778E0,3.3320456E0,2.550195E0,7.812883E0,4.3366594E0,1.7450025E0,2.0939574E0,2.2153542E0,1.1166914E0,6.23224E0,1.5806427E0,2.5997589E0,1.7369006E0,1.1074351E0,1.1079192E0],"tree_param":{"num_deleted":"0","num_feature":"7","num_nodes":"27","size_leaf_vector":"1"}},{"base_weights":[2.236287E-3,-1.6150658E-1,3.2178438E-1,-2.7669322E-1,4.930877E-1,-6.334529E-2,4.933584E-1,-7.2348125E-2,-1.074706E-1,6.5411694E-2,9.545389E-3,3.5164338E-2,-4.1370515E-2,2.3141801E-1,6.744891E-2,5.6111228E-2,-2.204355E-1,5.645165E-1,-3.865279E-2,1.1368329E-2,-3.743772E-2,1.4007862E-2,7.116814E-2],"categories":[],"categories_nodes":[],"categories_segments":[],"categories_sizes":[],"default_left":[0,0,0,0,0,0,0,0,0,0,0,0,0,0,0,0,0,0,0,0,0,0,0],"id":34,"left_children":[1,3,5,7,9,11,13,-1,15,-1,-1,-1,-1,17,-1,-1,19,21,-1,-1,-1,-1,-1],"loss_changes":[1.4876772E0,1.5545835E0,6.676323E-1,1.1799178E0,1.4078408E-1,7.0588326E-1,1.6541803E-1,0E0,1.1236033E0,0E0,0E0,0E0,0E0,1.101761E0,0E0,0E0,6.6202146E-1,9.990811E-2,0E0,0E0,0E0,0E0,0E0],"parents":[2147483647,0,0,1,1,2,2,3,3,4,4,5,5,6,6,8,8,13,13,16,16,17,17],"right_children":[2,4,6,8,10,12,14,-1,16,-1,-1,-1,-1,18,-1,-1,20,22,-1,-1,-1,-1,-1],"split_conditions":[6.37E-1,1.66E2,1.07E2,2.4E1,1.8E2,8.86E-1,8.93E-1,-7.2348125E-2,2.6E1,6.5411694E-2,9.545389E-3,3.5164338E-2,-4.1370515E-2,8.01E-1,6.744891E-2,5.6111228E-2,2.61E-1,3E1,-3.865279E-2,1.1368329E-2,-3.743772E-2,1.4007862E-2,7.116814E-2],"split_indices":[5,0,0,2,0,5,5,0,2,0,0,0,0,5,0,0,5,2,0,0,0,0,0],"split_type":[0,0,0,0,0,0,0,0,0,0,0,0,0,0,0,0,0,0,0,0,0,0,0],"sum_hessian":[2.643893E1,1.780822E1,8.630712E0,1.5634396E1,2.1738238E0,2.8543632E0,5.776348E0,3.3951278E0,1.2239267E1,1.0881385E0,1.0856853E0,1.304988E0,1.549375E0,3.2925248E0,2.483823E0,1.1956533E0,1.1043614E1,2.1955147E0,1.0970103E0,3.5658097E0,7.4778047E0,1.0677803E0,1.1277343E0],"tree_param":{"num_deleted":"0","num_feature":"7","num_nodes":"23","size_leaf_vector":"1"}},{"base_weights":[7.0795678E-3,-7.052631E-2,5.4684764E-1,-4.0568894E-1,4.2386573E-2,4.668081E-3,7.331323E-2,-6.467035E-2,-1.9005018E-1,1.2127766E-1,-4.383086E-2,1.2142938E-2,-3.9115164E-1,-6.068992E-2,5.121214E-1,2.0494133E-3,-6.197236E-2,8.8245515E-3,-5.290403E-2,1.6173583E-2,6.397947E-2],"categories":[],"categories_nodes":[],"categories_segments":[],"categories_sizes":[],"default_left":[0,0,0,0,0,0,0,0,0,0,0,0,0,0,0,0,0,0,0,0,0],"id":35,"left_children":[1,3,5,7,9,-1,-1,-1,11,13,-1,-1,15,17,19,-1,-1,-1,-1,-1,-1],"loss_changes":[1.1696647E0,9.4413793E-1,2.926749E-1,2.0279658E-1,7.8228563E-1,0E0,0E0,0E0,3.4338775E-1,1.2614315E0,0E0,0E0,3.050752E-1,9.3241364E-1,1.4710665E-1,0E0,0E0,0E0,0E0,0E0,0E0],"parents":[2147483647,0,0,1,1,2,2,3,3,4,4,8,8,9,9,12,12,13,13,14,14],"right_children":[2,4,6,8,10,-1,-1,-1,12,14,-1,-1,16,18,20,-1,-1,-1,-1,-1,-1],"split_conditions":[1.66E2,2.4E1,1.45E2,1E2,1.53E2,4.668081E-3,7.331323E-2,-6.467035E-2,1.2E2,1.27E2,-4.383086E-2,1.2142938E-2,1.25E2,4.1E1,3E1,2.0494133E-3,-6.197236E-2,8.8245515E-3,-5.290403E-2,1.6173583E-2,6.397947E-2],"split_indices":[0,2,3,0,0,0,0,0,0,0,0,0,3,2,6,0,0,0,0,0,0],"split_type":[0,0,0,0,0,0,0,0,0,0,0,0,0,0,0,0,0,0,0,0,0],"sum_hessian":[2.6002146E1,2.3493652E1,2.5084915E0,5.26688E0,1.8226772E1,1.0201141E0,1.4883775E0,1.5431377E0,3.7237422E0,1.6299435E1,1.9273392E0,1.616373E0,2.1073694E0,1.1697893E1,4.6015415E0,1.0773888E0,1.0299805E0,9.491256E0,2.2066374E0,1.8342996E0,2.7672417E0],"tree_param":{"num_deleted":"0","num_feature":"7","num_nodes":"21","size_leaf_vector":"1"}},{"base_weights":[4.8420266E-3,-1.5102074E-1,3.0860585E-1,-3.323448E-1,2.1612589E-1,-9.287528E-2,5.1486135E-1,-8.011762E-2,-1.2986311E-1,5.4588597E-2,5.974786E-3,-5.7611246E-2,2.6755944E-2,6.717553E-2,7.977499E-3,5.4912966E-2,-3.14339E-1,-4.5348864E-2,4.532029E-1,4.6851416E-3,-5.989489E-2,6.2129643E-2,6.787387E-3],"categories":[],"categories_nodes":[],"categories_segments":[],"categories_sizes":[],"default_left":[0,0,0,0,0,0,0,0,0,0,0,0,0,0,0,0,0,0,0,0,0,0,0],"id":36,"left_children":[1,3,5,7,9,11,13,-1,15,-1,17,-1,-1,-1,-1,-1,19,-1,21,-1,-1,-1,-1],"loss_changes":[1.3106564E0,1.2911859E0,8.2473713E-1,1.0972883E0,4.5836163E-1,8.563051E-1,3.799367E-1,0E0,1.4291247E0,0E0,1.2492955E0,0E0,0E0,0E0,0E0,0E0,9.0433574E-1,0E0,1.5695083E-1,0E0,0E0,0E0,0E0],"parents":[2147483647,0,0,1,1,2,2,3,3,4,4,5,5,6,6,8,8,10,10,16,16,18,18],"right_children":[2,4,6,8,10,12,14,-1,16,-1,18,-1,-1,-1,-1,-1,20,-1,22,-1,-1,-1,-1],"split_conditions":[6.37E-1,1.36E2,3.19E1,2.4E1,1.45E2,1.07E2,3.81E1,-8.011762E-2,2.7E1,5.4588597E-2,1.66E2,-5.7611246E-2,2.6755944E-2,6.717553E-2,7.977499E-3,5.4912966E-2,3.47E1,-4.5348864E-2,1.8E2,4.6851416E-3,-5.989489E-2,6.2129643E-2,6.787387E-3],"split_indices":[5,0,4,2,0,0,4,0,2,0,0,0,0,0,0,0,4,0,0,0,0,0,0],"split_type":[0,0,0,0,0,0,0,0,0,0,0,0,0,0,0,0,0,0,0,0,0,0,0],"sum_hessian":[2.5698446E1,1.7316233E1,8.382213E0,1.165495E1,5.661283E0,3.0313418E0,5.3508706E0,2.623544E0,9.031406E0,1.5817231E0,4.07956E0,1.0394125E0,1.9919293E0,3.5329247E0,1.8179458E0,1.5072035E0,7.524203E0,2.0053496E0,2.0742104E0,3.6841433E0,3.8400593E0,1.0178229E0,1.0563875E0],"tree_param":{"num_deleted":"0","num_feature":"7","num_nodes":"23","size_leaf_vector":"1"}},{"base_weights":[5.736615E-3,-3.330732E-1,1.2072719E-1,-5.587801E-1,3.6526043E-2,-2.1922381E-1,2.9702014E-1,-1.1385708E-2,-6.630015E-2,3.458188E-2,-2.973249E-2,-7.27088E-2,2.2097419E-1,3.7203488E-1,-1.7540684E-2,5.0370466E-2,-2.6531285E-2,7.315315E-2,2.1748981E-1,-1.3651015E-2,4.387238E-2],"categories":[],"categories_nodes":[],"categories_segments":[],"categories_sizes":[],"default_left":[0,0,0,0,0,0,0,0,0,0,0,0,0,0,0,0,0,0,0,0,0],"id":37,"left_children":[1,3,5,7,9,11,13,-1,-1,-1,-1,-1,15,17,-1,-1,-1,-1,19,-1,-1],"loss_changes":[1.0621136E0,5.970558E-1,1.282738E0,1.2636364E-1,4.7036272E-1,1.8403852E0,5.544443E-1,0E0,0E0,0E0,0E0,0E0,7.924531E-1,5.2052164E-1,0E0,0E0,0E0,0E0,8.4133404E-1,0E0,0E0],"parents":[2147483647,0,0,1,1,2,2,3,3,4,4,5,5,6,6,12,12,13,13,18,18],"right_children":[2,4,6,8,10,12,14,-1,-1,-1,-1,-1,16,18,-1,-1,-1,-1,20,-1,-1],"split_conditions":[8.8E1,3.36E1,2.8E1,5.1E1,2.6E1,3.2E1,1.88E2,-1.1385708E-2,-6.630015E-2,3.458188E-2,-2.973249E-2,-7.27088E-2,3.7E1,3E1,-1.7540684E-2,5.0370466E-2,-2.6531285E-2,7.315315E-2,3.37E1,-1.3651015E-2,4.387238E-2],"split_indices":[3,4,6,3,6,2,3,0,0,0,0,0,2,4,0,0,0,0,4,0,0],"split_type":[0,0,0,0,0,0,0,0,0,0,0,0,0,0,0,0,0,0,0,0,0],"sum_hessian":[2.522958E1,5.9124703E0,1.931711E1,3.353004E0,2.5594664E0,6.51347E0,1.280364E1,1.0334861E0,2.3195176E0,1.3099909E0,1.2494755E0,2.721685E0,3.7917852E0,1.123257E1,1.5710702E0,2.3750806E0,1.4167049E0,2.2545872E0,8.9779825E0,3.6002023E0,5.3777804E0],"tree_param":{"num_deleted":"0","num_feature":"7","num_nodes":"21","size_leaf_vector":"1"}},{"base_weights":[3.5773502E-3,-1.909462E-1,2.2972326E-1,8.486185E-2,-4.0247372E-1,-5.8683693E-2,4.0670434E-1,3.30555E-1,-6.2456913E-2,-6.0022587E-1,-4.683666E-2,-3.14954E-1,4.4956148E-2,7.220995E-2,5.039444E-2,-3.436991E-2,6.9822836E-1,-1.6414411E-2,-6.7221574E-2,-2.8376415E-2,2.468515E-2,3.2524995E-3,-5.920287E-2,2.8553224E-1,-3.4225397E-2,-9.6586876E-4,9.666457E-2,-1.26551455E-2,6.0848948E-2],"categories":[],"categories_nodes":[],"categories_segments":[],"categories_sizes":[],"default_left":[0,0,0,0,0,0,0,0,0,0,0,0,0,0,0,0,0,0,0,0,0,0,0,0,0,0,0,0,0],"id":38,"left_children":[1,3,5,7,9,11,13,15,-1,17,19,21,-1,-1,23,-1,25,-1,-1,-1,-1,-1,-1,27,-1,-1,-1,-1,-1],"loss_changes":[1.180977E0,8.767211E-1,6.5714276E-1,1.4430324E0,5.5896115E-1,8.6994624E-1,8.4182084E-1,1.7084239E0,0E0,5.54173E-2,3.5308594E-1,4.3378863E-1,0E0,0E0,5.357582E-1,0E0,8.0035114E-1,0E0,0E0,0E0,0E0,0E0,0E0,5.444753E-1,0E0,0E0,0E0,0E0,0E0],"parents":[2147483647,0,0,1,1,2,2,3,3,4,4,5,5,6,6,7,7,9,9,10,10,11,11,14,14,16,16,23,23],"right_children":[2,4,6,8,10,12,14,16,-1,18,20,22,-1,-1,24,-1,26,-1,-1,-1,-1,-1,-1,28,-1,-1,-1,-1,-1],"split_conditions":[5.1E-1,2.69E-1,3E1,3.7E1,3.5E1,8.39E-1,8.01E-1,2.5E1,-6.2456913E-2,6.2E1,7.8E1,2.3E1,4.4956148E-2,7.220995E-2,3.4E1,-3.436991E-2,1.98E-1,-1.6414411E-2,-6.7221574E-2,-2.8376415E-2,2.468515E-2,3.2524995E-3,-5.920287E-2,7.6E1,-3.4225397E-2,-9.6586876E-4,9.666457E-2,-1.26551455E-2,6.0848948E-2],"split_indices":[5,5,2,2,6,5,5,2,0,1,1,2,0,0,6,0,5,0,0,0,0,0,0,1,0,0,0,0,0],"split_type":[0,0,0,0,0,0,0,0,0,0,0,0,0,0,0,0,0,0,0,0,0,0,0,0,0,0,0,0,0],"sum_hessian":[2.4848917E1,1.3442099E1,1.1406817E1,6.0944443E0,7.3476543E0,4.5920568E0,6.814761E0,4.9234056E0,1.1710385E0,4.2800064E0,3.067648E0,3.3055992E0,1.2864574E0,3.0703611E0,3.7443998E0,1.7603716E0,3.163034E0,1.0712093E0,3.2087972E0,1.7166018E0,1.3510461E0,1.8580428E0,1.4475564E0,2.5125573E0,1.2318425E0,1.1346583E0,2.0283756E0,1.3711541E0,1.1414032E0],"tree_param":{"num_deleted":"0","num_feature":"7","num_nodes":"29","size_leaf_vector":"1"}},{"base_weights":[2.6595583E-3,-1.4085184E-1,2.79669E-1,-4.7416604E-1,-1.830929E-2,-8.7427214E-2,4.6495867E-1,-6.994315E-2,-6.474449E-3,-2.3177473E-1,1.9394757E-1,1.3825677E-2,-2.9495237E-2,6.2410768E-2,4.899093E-3,9.596939E-2,-4.1590792E-1,-1.596064E-1,5.544414E-1,-3.9712533E-2,6.0801383E-2,1.5764648E-2,-8.084728E-2,5.0406214E-2,-6.0748756E-2,4.3449695E-3,7.45891E-2],"categories":[],"categories_nodes":[],"categories_segments":[],"categories_sizes":[],"default_left":[0,0,0,0,0,0,0,0,0,0,0,0,0,0,0,0,0,0,0,0,0,0,0,0,0,0,0],"id":39,"left_children":[1,3,5,7,9,11,13,-1,-1,15,17,-1,-1,-1,-1,19,21,23,25,-1,-1,-1,-1,-1,-1,-1,-1],"loss_changes":[1.0522664E0,7.0400625E-1,6.5486443E-1,3.836074E-1,6.701421E-1,2.2206461E-1,3.7717593E-1,0E0,0E0,4.8257673E-1,1.0396967E0,0E0,0E0,0E0,0E0,1.1128144E0,1.227118E0,1.656981E0,3.5096574E-1,0E0,0E0,0E0,0E0,0E0,0E0,0E0,0E0],"parents":[2147483647,0,0,1,1,2,2,3,3,4,4,5,5,6,6,9,9,10,10,15,15,16,16,17,17,18,18],"right_children":[2,4,6,8,10,12,14,-1,-1,16,18,-1,-1,-1,-1,20,22,24,26,-1,-1,-1,-1,-1,-1,-1,-1],"split_conditions":[6.37E-1,8.8E1,3.19E1,3.33E1,3.1E1,2.81E1,3.81E1,-6.994315E-2,-6.474449E-3,3.19E1,3.41E1,1.3825677E-2,-2.9495237E-2,6.2410768E-2,4.899093E-3,2.89E1,2.5E1,3.08E1,1.26E2,-3.9712533E-2,6.0801383E-2,1.5764648E-2,-8.084728E-2,5.0406214E-2,-6.0748756E-2,4.3449695E-3,7.45891E-2],"split_indices":[5,3,4,4,6,4,4,0,0,4,4,0,0,0,0,4,6,4,3,0,0,0,0,0,0,0,0],"split_type":[0,0,0,0,0,0,0,0,0,0,0,0,0,0,0,0,0,0,0,0,0,0,0,0,0,0,0],"sum_hessian":[2.447855E1,1.6448523E1,8.030026E0,3.6503148E0,1.2798208E1,2.8707168E0,5.15931E0,1.8977976E0,1.7525171E0,6.335091E0,6.463117E0,1.5350884E0,1.3356285E0,3.3696923E0,1.7896173E0,2.4511037E0,3.8839874E0,3.5443022E0,2.9188147E0,1.3629885E0,1.0881151E0,1.8213438E0,2.0626438E0,1.377577E0,2.1667252E0,1.129924E0,1.7888906E0],"tree_param":{"num_deleted":"0","num_feature":"7","num_nodes":"27","size_leaf_vector":"1"}},{"base_weights":[2.226403E-3,-8.751705E-2,4.2086005E-1,-4.227807E-1,2.2316135E-2,5.568399E-1,-2.747833E-3,-5.9577364E-2,-2.2166643E-1,9.545313E-2,-4.4119798E-2,7.2456956E-2,8.058607E-3,1.5917266E-2,-4.9464345E-2,-7.524439E-2,5.237586E-1,4.2720683E-2,-1.9067587E-2,1.2398337E-2,6.252761E-2],"categories":[],"categories_nodes":[],"categories_segments":[],"categories_sizes":[],"default_left":[0,0,0,0,0,0,0,0,0,0,0,0,0,0,0,0,0,0,0,0,0],"id":40,"left_children":[1,3,5,7,9,11,-1,-1,13,15,-1,-1,-1,-1,-1,17,19,-1,-1,-1,-1],"loss_changes":[9.76737E-1,7.985228E-1,2.9503888E-1,5.365485E-2,6.2150306E-1,2.2660553E-1,0E0,0E0,5.00908E-1,1.1787667E0,0E0,0E0,0E0,0E0,0E0,7.784528E-1,1.0780716E-1,0E0,0E0,0E0,0E0],"parents":[2147483647,0,0,1,1,2,2,3,3,4,4,5,5,8,8,9,9,15,15,16,16],"right_children":[2,4,6,8,10,12,-1,-1,14,16,-1,-1,-1,-1,-1,18,20,-1,-1,-1,-1],"split_conditions":[1.55E2,2.4E1,4.8E1,1E2,1.46E2,1.76E2,-2.747833E-3,-5.9577364E-2,1.2E2,1.27E2,-4.4119798E-2,7.2456956E-2,8.058607E-3,1.5917266E-2,-4.9464345E-2,2.7E1,3.4E1,4.2720683E-2,-1.9067587E-2,1.2398337E-2,6.252761E-2],"split_indices":[0,2,6,0,0,0,0,0,0,0,0,0,0,0,0,2,2,0,0,0,0],"split_type":[0,0,0,0,0,0,0,0,0,0,0,0,0,0,0,0,0,0,0,0,0],"sum_hessian":[2.401767E1,2.0429169E1,3.588502E0,4.338052E0,1.6091116E1,2.5677133E0,1.0207886E0,1.2771335E0,3.0609183E0,1.4584002E1,1.507115E0,1.5133423E0,1.0543711E0,1.4520364E0,1.6088821E0,1.1017422E1,3.5665796E0,1.553664E0,9.463758E0,1.1721119E0,2.3944676E0],"tree_param":{"num_deleted":"0","num_feature":"7","num_nodes":"21","size_leaf_vector":"1"}},{"base_weights":[3.5916748E-3,-2.5809214E-1,1.284316E-1,-6.37582E-1,1.1418516E-1,2.835568E-1,-5.9081975E-2,-1.0743032E-2,-7.716252E-2,-5.9081938E-2,4.7540203E-1,4.7891596E-1,-1.6714562E-1,-2.4335149E-1,4.347934E-2,6.615589E-2,5.301136E-3,8.795909E-3,5.7179898E-2,-4.7967795E-2,2.1154165E-2,1.5906915E-1,-5.092568E-1,-1.1227448E-2,3.768095E-2,-7.307469E-2,-1.4752817E-2],"categories":[],"categories_nodes":[],"categories_segments":[],"categories_sizes":[],"default_left":[0,0,0,0,0,0,0,0,0,0,0,0,0,0,0,0,0,0,0,0,0,0,0,0,0,0,0],"id":41,"left_children":[1,3,5,7,9,11,13,-1,-1,-1,15,17,19,21,-1,-1,-1,-1,-1,-1,-1,23,25,-1,-1,-1,-1],"loss_changes":[8.405693E-1,1.2474986E0,5.2290356E-1,2.2050619E-1,1.5657526E0,9.3369555E-1,8.98059E-1,0E0,0E0,0E0,2.708258E-1,2.0470393E-1,5.36173E-1,8.28027E-1,0E0,0E0,0E0,0E0,0E0,0E0,0E0,2.514314E-1,2.4804962E-1,0E0,0E0,0E0,0E0],"parents":[2147483647,0,0,1,1,2,2,3,3,4,4,5,5,6,6,10,10,11,11,12,12,13,13,21,21,22,22],"right_children":[2,4,6,8,10,12,14,-1,-1,-1,16,18,20,22,-1,-1,-1,-1,-1,-1,-1,24,26,-1,-1,-1,-1],"split_conditions":[3.1E1,2.8E1,3.53E1,6.3E1,1.14E2,3.7E1,4.3E1,-1.0743032E-2,-7.716252E-2,-5.9081938E-2,2.9E1,2.5E1,7.6E1,2.6E1,4.347934E-2,6.615589E-2,5.301136E-3,8.795909E-3,5.7179898E-2,-4.7967795E-2,2.1154165E-2,1.16E2,3.1E1,-1.1227448E-2,3.768095E-2,-7.307469E-2,-1.4752817E-2],"split_indices":[4,6,4,3,3,6,6,0,0,0,4,6,1,6,0,0,0,0,0,0,0,3,6,0,0,0,0],"split_type":[0,0,0,0,0,0,0,0,0,0,0,0,0,0,0,0,0,0,0,0,0,0,0,0,0,0,0],"sum_hessian":[2.3715551E1,7.314934E0,1.6400618E1,3.2694685E0,4.0454655E0,8.695149E0,7.705468E0,1.0233793E0,2.246089E0,1.1551896E0,2.890276E0,6.0221987E0,2.6729507E0,5.981118E0,1.72435E0,1.6131154E0,1.2771605E0,1.5298488E0,4.4923496E0,1.3182812E0,1.3546696E0,2.53955E0,3.4415681E0,1.3462481E0,1.193302E0,1.5018303E0,1.9397378E0],"tree_param":{"num_deleted":"0","num_feature":"7","num_nodes":"27","size_leaf_vector":"1"}},{"base_weights":[7.270488E-4,-8.271444E-2,3.877149E-1,4.8344973E-2,-1.4604524E-1,-2.3879936E-2,6.985735E-2,-3.7217396E-1,6.734317E-2,-7.047978E-2,-1.20707475E-1,4.9884114E-1,-1.97553E-1,-2.6905512E-2,2.3723677E-2,1.5776366E-2,6.140068E-2,1.4227839E-2,-4.1271914E-2],"categories":[],"categories_nodes":[],"categories_segments":[],"categories_sizes":[],"default_left":[0,0,0,0,0,0,0,0,0,0,0,0,0,0,0,0,0,0,0],"id":42,"left_children":[1,3,5,-1,7,-1,-1,9,11,-1,13,15,17,-1,-1,-1,-1,-1,-1],"loss_changes":[8.1850827E-1,8.185228E-1,1.0423934E0,0E0,9.6738064E-1,0E0,0E0,7.207887E-1,1.3437672E0,0E0,4.1924167E-1,7.705045E-2,6.0467297E-1,0E0,0E0,0E0,0E0,0E0,0E0],"parents":[2147483647,0,0,1,1,2,2,4,4,7,7,8,8,10,10,11,11,12,12],"right_children":[2,4,6,-1,8,-1,-1,10,12,-1,14,16,18,-1,-1,-1,-1,-1,-1],"split_conditions":[1.55E2,5.2E1,7E1,4.8344973E-2,3.36E1,-2.3879936E-2,6.985735E-2,1.07E2,3.53E1,-7.047978E-2,3.3E1,3.1E1,1.03E2,-2.6905512E-2,2.3723677E-2,1.5776366E-2,6.140068E-2,1.4227839E-2,-4.1271914E-2],"split_indices":[0,1,1,0,4,0,0,0,4,0,2,2,0,0,0,0,0,0,0],"split_type":[0,0,0,0,0,0,0,0,0,0,0,0,0,0,0,0,0,0,0],"sum_hessian":[2.335485E1,1.9859129E1,3.4957213E0,1.3305517E0,1.8528576E1,1.2361507E0,2.2595706E0,8.634471E0,9.894106E0,2.9412382E0,5.693233E0,3.4276073E0,6.4664984E0,4.2006383E0,1.4925947E0,1.463413E0,1.9641944E0,2.6383169E0,3.8281815E0],"tree_param":{"num_deleted":"0","num_feature":"7","num_nodes":"19","size_leaf_vector":"1"}},{"base_weights":[3.4606294E-3,-6.1740447E-2,4.5682564E-1,-4.955531E-1,1.54607585E-2,6.8196664E-3,6.163558E-2,-1.1617788E-2,-6.167387E-2,-3.2102156E-1,7.287165E-2,-9.81171E-3,-3.8585126E-2,-3.3037484E-2,1.4294116E-1,3.8996268E-2,2.571174E-3],"categories":[],"categories_nodes":[],"categories_segments":[],"categories_sizes":[],"default_left":[0,0,0,0,0,0,0,0,0,0,0,0,0,0,0,0,0],"id":43,"left_children":[1,3,5,7,9,-1,-1,-1,-1,11,13,-1,-1,-1,15,-1,-1],"loss_changes":[7.39137E-1,7.4136454E-1,1.5282768E-1,8.190125E-2,4.0139586E-1,0E0,0E0,0E0,0E0,6.0290396E-3,5.4255605E-1,0E0,0E0,0E0,4.4268748E-1,0E0,0E0],"parents":[2147483647,0,0,1,1,2,2,3,3,4,4,9,9,10,10,14,14],"right_children":[2,4,6,8,10,-1,-1,-1,-1,12,14,-1,-1,-1,16,-1,-1],"split_conditions":[1.66E2,2.64E1,1.48E2,2.4E1,2.3E1,6.8196664E-3,6.163558E-2,-1.1617788E-2,-6.167387E-2,1.08E2,7E1,-9.81171E-3,-3.8585126E-2,-3.3037484E-2,3.19E1,3.8996268E-2,2.571174E-3],"split_indices":[0,4,3,6,6,0,0,0,0,3,3,0,0,0,4,0,0],"split_type":[0,0,0,0,0,0,0,0,0,0,0,0,0,0,0,0,0],"sum_hessian":[2.3050577E1,2.0907557E1,2.1430206E0,2.33993E0,1.8567627E1,1.0391201E0,1.1039007E0,1.040691E0,1.2992389E0,2.0370326E0,1.6530594E1,1.0252765E0,1.0117562E0,1.8972217E0,1.4633372E1,3.9608095E0,1.0672564E1],"tree_param":{"num_deleted":"0","num_feature":"7","num_nodes":"17","size_leaf_vector":"1"}},{"base_weights":[1.1947586E-3,-6.127622E-2,4.403071E-1,4.5151193E-2,-1.1642762E-1,5.802024E-2,9.50422E-3,-5.335408E-2,-3.5770804E-2,-3.7115163E-1,3.092748E-2,-5.5913985E-2,5.0780375E-4,3.2938585E-2,-1.3617478E-2],"categories":[],"categories_nodes":[],"categories_segments":[],"categories_sizes":[],"default_left":[0,0,0,0,0,0,0,0,0,0,0,0,0,0,0],"id":44,"left_children":[1,3,5,-1,7,-1,-1,-1,9,11,13,-1,-1,-1,-1],"loss_changes":[6.814571E-1,6.6809505E-1,9.428316E-2,0E0,6.6878533E-1,0E0,0E0,0E0,4.1871232E-1,2.2186786E-1,8.4821796E-1,0E0,0E0,0E0,0E0],"parents":[2147483647,0,0,1,1,2,2,4,4,8,8,9,9,10,10],"right_children":[2,4,6,-1,8,-1,-1,-1,10,12,14,-1,-1,-1,-1],"split_conditions":[1.66E2,5.2E1,1.8E2,4.5151193E-2,9.3E1,5.802024E-2,9.50422E-3,-5.335408E-2,6.2E1,1.1E2,1.1E2,-5.5913985E-2,5.0780375E-4,3.2938585E-2,-1.3617478E-2],"split_indices":[0,1,0,0,0,0,0,0,1,0,0,0,0,0,0],"split_type":[0,0,0,0,0,0,0,0,0,0,0,0,0,0,0],"sum_hessian":[2.2858341E1,2.0764677E1,2.0936637E0,1.3185217E0,1.9446156E1,1.0057114E0,1.0879523E0,2.2411578E0,1.7204998E1,2.0968273E0,1.51081705E1,1.074015E0,1.0228124E0,5.074153E0,1.0034018E1],"tree_param":{"num_deleted":"0","num_feature":"7","num_nodes":"15","size_leaf_vector":"1"}},{"base_weights":[1.9257781E-3,-1.4023654E-1,2.723894E-1,-2.2599642E-1,3.56631E-2,-1.7682564E-2,3.9572355E-1,-3.343654E-1,1.1332994E-1,5.5762947E-1,1.0604022E-1,-1.1767811E-1,-6.193591E-1,4.6360515E-2,-2.5137017E-2,6.9109276E-2,1.9956721E-2,-2.2598611E-2,4.1879218E-2,-3.692679E-2,2.9713098E-2,-8.604122E-2,-5.7603656E-3],"categories":[],"categories_nodes":[],"categories_segments":[],"categories_sizes":[],"default_left":[0,0,0,0,0,0,0,0,0,0,0,0,0,0,0,0,0,0,0,0,0,0,0],"id":45,"left_children":[1,3,5,7,-1,-1,9,11,13,15,17,19,21,-1,-1,-1,-1,-1,-1,-1,-1,-1,-1],"loss_changes":[9.494485E-1,7.706702E-1,5.411901E-1,5.682606E-1,0E0,0E0,2.6832926E-1,6.1783147E-1,6.5793073E-1,6.488824E-2,4.8280153E-1,9.0166384E-1,5.7285285E-1,0E0,0E0,0E0,0E0,0E0,0E0,0E0,0E0,0E0,0E0],"parents":[2147483647,0,0,1,1,2,2,3,3,6,6,7,7,8,8,9,9,10,10,11,11,12,12],"right_children":[2,4,6,8,-1,-1,10,12,14,16,18,20,22,-1,-1,-1,-1,-1,-1,-1,-1,-1,-1],"split_conditions":[6.37E-1,1.66E2,6.2E1,8.2E1,3.56631E-2,-1.7682564E-2,8.86E-1,7.2E1,2.61E-1,1.1E2,1.22E2,1.25E2,3.4E-1,4.6360515E-2,-2.5137017E-2,6.9109276E-2,1.9956721E-2,-2.2598611E-2,4.1879218E-2,-3.692679E-2,2.9713098E-2,-8.604122E-2,-5.7603656E-3],"split_indices":[5,0,1,1,0,0,5,1,5,0,0,0,5,0,0,0,0,0,0,0,0,0,0],"split_type":[0,0,0,0,0,0,0,0,0,0,0,0,0,0,0,0,0,0,0,0,0,0,0],"sum_hessian":[2.269976E1,1.5194602E1,7.5051594E0,1.3422945E1,1.771657E0,1.5232766E0,5.9818826E0,1.0184873E1,3.2380726E0,3.2438893E0,2.7379935E0,6.588442E0,3.5964303E0,1.5133675E0,1.7247052E0,1.6855359E0,1.5583533E0,1.4626403E0,1.2753532E0,4.169405E0,2.419037E0,2.1445432E0,1.4518871E0],"tree_param":{"num_deleted":"0","num_feature":"7","num_nodes":"23","size_leaf_vector":"1"}},{"base_weights":[3.5967054E-3,-1.7158152E-1,2.018274E-1,1.0249387E-1,-3.7955958E-1,-9.775748E-2,3.3939072E-1,3.3995962E-1,-5.7427574E-2,-5.316026E-1,3.5483122E-3,2.0226E-2,-3.0106384E-2,5.315245E-1,-1.9421346E-2,-3.0842835E-2,6.6776377E-1,-7.491727E-2,-2.2172014E-1,8.942126E-3,-8.817427E-3,-6.9403523E-3,7.402874E-2,2.5774036E-2,-3.6290243E-2,1.0384871E-2,8.652336E-2,-3.6296632E-2,2.259397E-3],"categories":[],"categories_nodes":[],"categories_segments":[],"categories_sizes":[],"default_left":[0,0,0,0,0,0,0,0,0,0,0,0,0,0,0,0,0,0,0,0,0,0,0,0,0,0,0,0,0],"id":46,"left_children":[1,3,5,7,9,11,13,15,-1,17,19,-1,-1,21,23,-1,25,-1,27,-1,-1,-1,-1,-1,-1,-1,-1,-1,-1],"loss_changes":[8.4579235E-1,7.7656734E-1,5.037366E-1,1.219066E0,4.428531E-1,3.2740918E-1,5.6519186E-1,1.3418193E0,0E0,1.997329E-1,3.2650005E-2,0E0,0E0,7.1338856E-1,4.525872E-1,0E0,3.4059656E-1,0E0,1.3445397E-1,0E0,0E0,0E0,0E0,0E0,0E0,0E0,0E0,0E0,0E0],"parents":[2147483647,0,0,1,1,2,2,3,3,4,4,5,5,6,6,7,7,9,9,10,10,13,13,14,14,16,16,18,18],"right_children":[2,4,6,8,10,12,14,16,-1,18,20,-1,-1,22,24,-1,26,-1,28,-1,-1,-1,-1,-1,-1,-1,-1,-1,-1],"split_conditions":[5.1E-1,2.69E-1,3.2E1,3.7E1,7.8E1,6.82E-1,3.68E1,2.5E1,-5.7427574E-2,3.49E-1,8.4E1,2.0226E-2,-3.0106384E-2,2.7E1,8.86E-1,-3.0842835E-2,2.03E-1,-7.491727E-2,6.8E1,8.942126E-3,-8.817427E-3,-6.9403523E-3,7.402874E-2,2.5774036E-2,-3.6290243E-2,1.0384871E-2,8.652336E-2,-3.6296632E-2,2.259397E-3],"split_indices":[5,5,4,2,1,5,4,2,0,5,1,0,0,2,5,0,5,0,1,0,0,0,0,0,0,0,0,0,0],"split_type":[0,0,0,0,0,0,0,0,0,0,0,0,0,0,0,0,0,0,0,0,0,0,0,0,0,0,0,0,0],"sum_hessian":[2.2359137E1,1.1941109E1,1.0418029E1,5.370717E0,6.5703917E0,3.3694394E0,7.048589E0,4.34412E0,1.026597E0,4.4261794E0,2.1442122E0,1.3630881E0,2.0063512E0,4.2770205E0,2.771569E0,1.4785986E0,2.8655214E0,1.7675624E0,2.658617E0,1.1203773E0,1.023835E0,1.2748598E0,3.0021605E0,1.6720122E0,1.0995568E0,1.1389413E0,1.7265801E0,1.3769196E0,1.2816975E0],"tree_param":{"num_deleted":"0","num_feature":"7","num_nodes":"29","size_leaf_vector":"1"}},{"base_weights":[9.360561E-4,-1.3008627E-1,2.484442E-1,-2.1577467E-1,3.5472397E-2,-1.7147612E-2,3.66813E-1,-3.1759593E-1,9.914502E-2,5.557117E-2,1.3316846E-1,-4.7775802E-1,-1.9466493E-2,4.2237252E-2,-2.335247E-2,-1.3179428E-2,3.2304794E-2,-5.8312394E-2,-3.5908388E-3,2.7214656E-2,-4.1338444E-2],"categories":[],"categories_nodes":[],"categories_segments":[],"categories_sizes":[],"default_left":[0,0,0,0,0,0,0,0,0,0,0,0,0,0,0,0,0,0,0,0,0],"id":47,"left_children":[1,3,5,7,-1,-1,9,11,13,-1,15,17,19,-1,-1,-1,-1,-1,-1,-1,-1],"loss_changes":[7.804332E-1,7.304425E-1,4.7688192E-1,4.8034388E-1,0E0,0E0,2.2681308E-1,5.071472E-1,5.483391E-1,0E0,2.6204115E-1,3.046496E-1,6.664543E-1,0E0,0E0,0E0,0E0,0E0,0E0,0E0,0E0],"parents":[2147483647,0,0,1,1,2,2,3,3,6,6,7,7,8,8,10,10,11,11,12,12],"right_children":[2,4,6,8,-1,-1,10,12,14,-1,16,18,20,-1,-1,-1,-1,-1,-1,-1,-1],"split_conditions":[6.37E-1,1.66E2,6.2E1,8.2E1,3.5472397E-2,-1.7147612E-2,8.21E-1,1.25E2,2.61E-1,5.557117E-2,7.6E1,5.1E-1,7.2E1,4.2237252E-2,-2.335247E-2,-1.3179428E-2,3.2304794E-2,-5.8312394E-2,-3.5908388E-3,2.7214656E-2,-4.1338444E-2],"split_indices":[5,0,1,1,0,0,5,0,5,0,1,5,1,0,0,0,0,0,0,0,0],"split_type":[0,0,0,0,0,0,0,0,0,0,0,0,0,0,0,0,0,0,0,0,0],"sum_hessian":[2.2069223E1,1.4740515E1,7.3287077E0,1.2998082E1,1.7424328E0,1.5129102E0,5.815798E0,9.815871E0,3.182211E0,2.4536238E0,3.3621738E0,5.993503E0,3.8223684E0,1.4772472E0,1.7049636E0,1.5312848E0,1.830889E0,4.58129E0,1.4122133E0,2.3740296E0,1.4483387E0],"tree_param":{"num_deleted":"0","num_feature":"7","num_nodes":"21","size_leaf_vector":"1"}},{"base_weights":[2.2388631E-3,-1.20738335E-1,2.3208627E-1,-2.019644E-1,3.3571575E-2,-8.587894E-2,3.8096377E-1,-5.888787E-2,-7.204632E-2,-4.5065988E-2,3.5644658E-2,1.5078203E-1,5.433049E-1,4.688516E-2,-1.7236058E-1,3.9373036E-2,-2.1622216E-2,6.626203E-2,1.5494279E-2,3.8174582E-3,-4.341873E-2],"categories":[],"categories_nodes":[],"categories_segments":[],"categories_sizes":[],"default_left":[0,0,0,0,0,0,0,0,0,0,0,0,0,0,0,0,0,0,0,0,0],"id":48,"left_children":[1,3,5,7,-1,9,11,-1,13,-1,-1,15,17,-1,19,-1,-1,-1,-1,-1,-1],"loss_changes":[6.714066E-1,6.419596E-1,4.2447746E-1,6.497981E-1,0E0,7.181447E-1,1.3558376E-1,0E0,7.0201343E-1,0E0,0E0,4.231901E-1,3.7695885E-2,0E0,5.8924323E-1,0E0,0E0,0E0,0E0,0E0,0E0],"parents":[2147483647,0,0,1,1,2,2,3,3,5,5,6,6,8,8,11,11,12,12,14,14],"right_children":[2,4,6,8,-1,10,12,-1,14,-1,-1,16,18,-1,20,-1,-1,-1,-1,-1,-1],"split_conditions":[6.37E-1,1.66E2,1.07E2,2.4E1,3.3571575E-2,3.37E1,8.93E-1,-5.888787E-2,2.6E1,-4.5065988E-2,3.5644658E-2,7.85E-1,3.43E1,4.688516E-2,3.51E1,3.9373036E-2,-2.1622216E-2,6.626203E-2,1.5494279E-2,3.8174582E-3,-4.341873E-2],"split_indices":[5,0,0,2,0,4,5,0,2,0,0,5,4,0,4,0,0,0,0,0,0],"split_type":[0,0,0,0,0,0,0,0,0,0,0,0,0,0,0,0,0,0,0,0,0],"sum_hessian":[2.1761803E1,1.4485959E1,7.275843E0,1.277091E1,1.715049E0,2.4552336E0,4.8206096E0,2.3222454E0,1.0448665E1,1.3352367E0,1.1199969E0,2.791446E0,2.0291634E0,1.0598876E0,9.388778E0,1.635777E0,1.1556691E0,1.0120441E0,1.0171193E0,5.677607E0,3.7111704E0],"tree_param":{"num_deleted":"0","num_feature":"7","num_nodes":"21","size_leaf_vector":"1"}},{"base_weights":[5.0908835E-3,-2.4770796E-1,1.20889775E-1,-5.8894795E-1,8.943995E-2,1.8761638E-1,-2.6047114E-2,-1.1846111E-2,-7.168909E-2,-3.756369E-2,3.592656E-1,4.2541E-2,7.097015E-2,5.3696927E-2,1.6115134E-3,4.876524E-2,-5.862938E-2,-2.3857655E-2,1.781187E-2],"categories":[],"categories_nodes":[],"categories_segments":[],"categories_sizes":[],"default_left":[0,0,0,0,0,0,0,0,0,0,0,0,0,0,0,0,0,0,0],"id":49,"left_children":[1,3,5,7,9,11,-1,-1,-1,-1,13,15,-1,-1,-1,-1,17,-1,-1],"loss_changes":[6.880625E-1,9.029689E-1,4.5832658E-1,1.4411569E-1,7.104267E-1,1.0510845E0,0E0,0E0,0E0,0E0,1.9948289E-1,5.795715E-1,0E0,0E0,0E0,0E0,5.0524E-1,0E0,0E0],"parents":[2147483647,0,0,1,1,2,2,3,3,4,4,5,5,10,10,11,11,16,16],"right_children":[2,4,6,8,10,12,-1,-1,-1,-1,14,16,-1,-1,-1,-1,18,-1,-1],"split_conditions":[3.1E1,2.8E1,8.8E1,6.5E1,1.15E2,8.2E1,-2.6047114E-2,-1.1846111E-2,-7.168909E-2,-3.756369E-2,2.9E1,3.19E1,7.097015E-2,5.3696927E-2,1.6115134E-3,4.876524E-2,3.1E1,-2.3857655E-2,1.781187E-2],"split_indices":[4,6,1,3,3,1,0,0,0,0,4,4,0,0,0,0,6,0,0],"split_type":[0,0,0,0,0,0,0,0,0,0,0,0,0,0,0,0,0,0,0],"sum_hessian":[2.1481419E1,6.3907485E0,1.509067E1,2.8049252E0,3.585823E0,1.3275836E1,1.8148345E0,1.0114377E0,1.7934877E0,1.1725852E0,2.4132378E0,1.1235291E1,2.0405447E0,1.2177783E0,1.1954595E0,1.3732778E0,9.862013E0,5.598778E0,4.263235E0],"tree_param":{"num_deleted":"0","num_feature":"7","num_nodes":"19","size_leaf_vector":"1"}}]},"name":"gbtree"},"learner_model_param":{"base_score":"2.9095376E-1","boost_from_average":"1","num_class":"0","num_feature":"7","num_target":"1"},"objective":{"name":"binary:logistic","reg_loss_param":{"scale_pos_weight":"1"}}},"version":[2,1,3]}